<?xml version="1.0"?>
<opencv_storage>
<opencv_ml_svm>
  <format>3</format>
  <svmType>C_SVC</svmType>
  <kernel>
    <type>RBF</type>
    <gamma>1.0000000000000001e-05</gamma></kernel>
  <C>5.0000000000000000e-01</C>
  <term_criteria><iterations>1000</iterations></term_criteria>
  <var_count>256</var_count>
  <class_count>2</class_count>
  <class_labels type_id="opencv-matrix">
    <rows>2</rows>
    <cols>1</cols>
    <dt>i</dt>
    <data>
      0 1</data></class_labels>
  <sv_total>2000</sv_total>
  <support_vectors>
    <_>
      0. 0. 0. 0. 0. 0. 0. 0. 0. 0. 0. 0. 0. 0. 0. 0. 0. 0. 0. 0. 0. 0.
      0. 0. 0. 0. 0. 0. 0. 0. 0. 0. 0. 0. 1. 20. 89. 193. 298. 311. 289.
      296. 316. 326. 321. 351. 392. 356. 366. 331. 345. 283. 314. 306.
      335. 337. 324. 295. 290. 315. 317. 268. 278. 291. 270. 281. 324.
      266. 301. 292. 356. 354. 330. 279. 294. 307. 316. 317. 327. 307.
      338. 353. 323. 322. 329. 312. 348. 372. 368. 360. 356. 384. 357.
      348. 334. 367. 376. 377. 380. 341. 313. 323. 385. 373. 370. 378.
      420. 483. 465. 491. 481. 510. 478. 515. 528. 466. 473. 509. 464.
      521. 431. 454. 440. 462. 466. 475. 472. 503. 513. 418. 433. 480.
      548. 541. 555. 529. 558. 596. 594. 580. 573. 694. 709. 787. 875.
      935. 961. 1078. 1157. 1097. 1142. 1114. 1184. 1147. 1080. 1001.
      958. 824. 784. 719. 695. 706. 606. 656. 682. 707. 641. 583. 578.
      543. 573. 505. 530. 520. 513. 490. 458. 493. 430. 472. 465. 528.
      539. 562. 542. 568. 554. 568. 617. 568. 510. 426. 446. 450. 429.
      404. 330. 306. 316. 327. 354. 289. 355. 339. 379. 412. 409. 400.
      407. 419. 476. 438. 482. 529. 613. 619. 644. 614. 497. 480. 331.
      273. 172. 115. 72. 51. 35. 13. 13. 2. 0. 0. 0. 0. 0. 0. 0. 0. 0.
      0. 0. 0. 0. 0. 0. 0. 0. 0. 0. 0. 0. 0. 0. 0. 0. 0.</_>
    <_>
      0. 0. 0. 0. 0. 0. 0. 0. 2. 15. 11. 11. 3. 2. 1. 2. 0. 5. 0. 1. 1.
      1. 2. 1. 1. 3. 1. 0. 3. 1. 2. 3. 2. 3. 3. 1. 4. 6. 3. 3. 6. 3. 5.
      10. 5. 7. 9. 7. 12. 14. 6. 17. 27. 45. 50. 61. 62. 79. 69. 87. 95.
      103. 93. 72. 85. 103. 104. 117. 102. 104. 138. 137. 158. 175. 199.
      204. 217. 223. 212. 203. 232. 273. 271. 275. 257. 238. 232. 227.
      212. 227. 216. 242. 238. 245. 261. 254. 258. 261. 226. 244. 253.
      273. 247. 267. 238. 261. 280. 289. 247. 302. 285. 309. 287. 359.
      346. 372. 374. 339. 307. 287. 275. 283. 258. 237. 277. 260. 217.
      226. 242. 228. 229. 221. 226. 189. 221. 206. 193. 184. 221. 179.
      225. 169. 166. 191. 177. 184. 199. 194. 232. 244. 228. 286. 263.
      296. 317. 320. 287. 369. 323. 390. 360. 381. 335. 386. 339. 370.
      355. 326. 357. 352. 314. 333. 359. 369. 352. 434. 420. 448. 440.
      500. 463. 509. 494. 592. 581. 580. 597. 640. 645. 685. 622. 682.
      719. 747. 797. 846. 904. 979. 1030. 1096. 1098. 1239. 1312. 1322.
      1408. 1479. 1493. 1629. 1546. 1551. 1596. 1498. 1497. 1382. 1377.
      1357. 1333. 1183. 1074. 1029. 911. 853. 738. 709. 681. 627. 619.
      637. 752. 794. 835. 874. 931. 894. 937. 853. 805. 728. 630. 513.
      386. 275. 153. 85. 49. 16. 7. 1. 2. 0. 0. 0. 0. 0. 0. 0.</_>
    <_>
      0. 0. 0. 0. 0. 0. 0. 0. 0. 0. 0. 0. 0. 0. 0. 0. 0. 0. 0. 0. 0. 0.
      0. 0. 0. 0. 0. 0. 0. 0. 0. 0. 0. 0. 0. 0. 0. 0. 0. 0. 0. 0. 0. 0.
      0. 0. 0. 0. 0. 0. 0. 0. 0. 0. 0. 0. 0. 0. 0. 0. 0. 0. 0. 0. 0. 0.
      0. 0. 0. 0. 0. 0. 0. 0. 4. 4. 20. 29. 31. 26. 35. 39. 50. 47. 50.
      75. 63. 51. 57. 63. 60. 53. 91. 55. 69. 63. 56. 57. 74. 95. 79.
      77. 82. 72. 90. 93. 87. 71. 103. 86. 90. 81. 96. 81. 89. 99. 75.
      69. 69. 80. 89. 102. 85. 121. 101. 103. 83. 87. 120. 108. 106.
      105. 94. 105. 91. 97. 95. 94. 90. 86. 81. 105. 76. 82. 81. 82. 95.
      97. 129. 140. 147. 149. 129. 171. 151. 137. 147. 134. 124. 133.
      131. 150. 140. 147. 140. 144. 131. 134. 148. 156. 174. 170. 137.
      165. 176. 176. 200. 203. 197. 185. 182. 204. 200. 227. 253. 237.
      289. 330. 301. 352. 344. 372. 354. 407. 437. 424. 477. 447. 450.
      428. 490. 495. 523. 550. 607. 585. 657. 622. 621. 615. 569. 633.
      656. 647. 643. 699. 742. 788. 946. 939. 1007. 1072. 1200. 1369.
      1501. 1599. 1879. 2379. 2954. 3209. 3140. 2512. 2072. 1938. 1916.
      1850. 1861. 1918. 1758. 1647. 1476. 1433. 1445. 1650. 1781. 2051.
      2532. 2901. 2826. 1790. 447. 4. 0. 0. 0. 0.</_>
    <_>
      0. 0. 0. 0. 0. 0. 0. 0. 0. 0. 0. 0. 0. 0. 0. 0. 0. 0. 0. 0. 1. 8.
      11. 19. 14. 26. 22. 25. 23. 25. 27. 35. 34. 38. 42. 41. 33. 44.
      39. 43. 53. 56. 64. 51. 65. 58. 74. 77. 82. 92. 80. 89. 83. 90.
      74. 72. 94. 76. 77. 79. 74. 99. 95. 70. 79. 81. 58. 83. 79. 69.
      67. 76. 79. 48. 78. 62. 84. 71. 64. 72. 61. 85. 92. 86. 73. 67.
      79. 84. 82. 101. 131. 93. 108. 121. 114. 126. 137. 120. 128. 126.
      143. 125. 113. 126. 124. 130. 118. 139. 137. 162. 164. 154. 154.
      190. 210. 254. 247. 234. 254. 303. 270. 251. 260. 299. 294. 284.
      274. 267. 346. 294. 280. 298. 274. 271. 289. 306. 314. 308. 329.
      299. 310. 291. 299. 302. 305. 293. 303. 285. 306. 268. 278. 261.
      291. 281. 298. 278. 248. 280. 287. 301. 301. 275. 275. 248. 288.
      244. 271. 281. 250. 240. 250. 234. 217. 233. 263. 247. 293. 254.
      270. 294. 319. 298. 323. 328. 304. 334. 357. 431. 433. 484. 533.
      537. 558. 565. 631. 694. 837. 907. 1120. 1401. 1641. 1880. 1868.
      1946. 1782. 1787. 1704. 1569. 1500. 1236. 1022. 826. 764. 834.
      867. 930. 996. 1108. 1009. 980. 851. 896. 913. 905. 846. 825. 797.
      818. 826. 805. 792. 886. 966. 960. 837. 758. 698. 734. 856. 1001.
      1158. 1440. 1841. 2181. 1461. 698. 181. 9. 0. 0. 0. 0. 0. 0. 0. 0.</_>
    <_>
      0. 0. 0. 0. 0. 0. 0. 0. 0. 0. 0. 0. 0. 0. 0. 0. 0. 0. 0. 0. 0. 0.
      0. 0. 0. 0. 0. 0. 0. 0. 0. 0. 0. 0. 0. 0. 0. 0. 0. 0. 0. 0. 0. 0.
      0. 0. 0. 0. 0. 0. 0. 0. 0. 0. 0. 0. 0. 0. 0. 0. 0. 0. 0. 0. 0. 0.
      0. 15. 42. 63. 70. 82. 107. 137. 138. 138. 162. 160. 177. 191.
      230. 231. 265. 258. 237. 282. 290. 320. 331. 358. 429. 372. 283.
      321. 312. 408. 506. 646. 723. 631. 562. 497. 442. 531. 468. 492.
      441. 375. 428. 407. 412. 392. 335. 358. 348. 418. 439. 488. 472.
      481. 497. 488. 497. 537. 446. 412. 396. 409. 522. 573. 754. 837.
      940. 917. 837. 873. 879. 795. 818. 807. 960. 1141. 1422. 1785.
      2054. 2274. 2363. 2445. 2366. 2339. 2217. 2089. 1902. 1773. 1582.
      1536. 1412. 1291. 1228. 1241. 1206. 1244. 1296. 1439. 1605. 1748.
      1863. 1801. 1790. 1723. 1563. 1392. 1150. 970. 788. 543. 350. 210.
      121. 67. 37. 29. 30. 26. 16. 14. 9. 7. 5. 3. 0. 1. 0. 0. 0. 0. 0.
      0. 0. 0. 0. 0. 0. 0. 0. 0. 0. 0. 0. 0. 0. 0. 0. 0. 0. 0. 0. 0. 0.
      0. 0. 0. 0. 0. 0. 0. 0. 0. 0. 0. 0. 0. 0. 0. 0. 0. 0. 0. 0. 0. 0.
      0. 0. 0. 0. 0. 0. 0. 0. 0. 0. 0. 0. 0. 0. 0.</_>
    <_>
      0. 0. 0. 0. 0. 0. 0. 0. 0. 0. 0. 0. 0. 0. 0. 0. 0. 0. 0. 0. 0. 0.
      0. 0. 0. 0. 1. 4. 11. 21. 36. 56. 68. 74. 94. 128. 157. 150. 165.
      147. 123. 156. 162. 194. 180. 164. 149. 163. 198. 166. 156. 141.
      163. 168. 163. 182. 185. 190. 195. 257. 230. 197. 194. 156. 143.
      151. 123. 137. 157. 132. 173. 173. 169. 194. 158. 139. 125. 132.
      133. 122. 120. 125. 128. 138. 165. 139. 179. 174. 193. 201. 244.
      243. 265. 299. 298. 239. 240. 261. 224. 231. 251. 232. 226. 257.
      217. 217. 237. 233. 243. 216. 214. 219. 243. 235. 289. 267. 262.
      309. 299. 344. 341. 371. 367. 384. 397. 423. 425. 416. 485. 442.
      443. 466. 486. 512. 636. 670. 681. 758. 700. 748. 675. 625. 578.
      537. 504. 455. 393. 387. 403. 352. 378. 392. 393. 438. 441. 495.
      563. 642. 713. 796. 861. 917. 1025. 1089. 1185. 1182. 1321. 1218.
      1259. 1288. 1265. 1251. 1271. 1200. 1181. 1175. 1161. 1217. 1146.
      1147. 1118. 1089. 1070. 1071. 1010. 1042. 1016. 977. 998. 962.
      842. 811. 734. 682. 597. 626. 542. 500. 475. 471. 483. 481. 508.
      514. 580. 629. 682. 748. 764. 810. 791. 764. 751. 705. 645. 611.
      459. 383. 283. 199. 142. 98. 66. 55. 41. 37. 30. 11. 3. 3. 0. 0.
      1. 0. 0. 0. 0. 0. 0. 0. 0. 0. 0. 0. 0. 0. 0. 0. 0. 0. 0. 0. 0. 0.
      0. 0.</_>
    <_>
      0. 0. 0. 0. 0. 0. 0. 0. 0. 0. 0. 0. 0. 0. 0. 0. 0. 0. 0. 0. 0. 0.
      0. 0. 0. 0. 0. 0. 0. 0. 0. 0. 0. 0. 0. 0. 0. 0. 0. 0. 0. 0. 0. 14.
      25. 34. 32. 39. 39. 67. 73. 65. 87. 104. 91. 105. 123. 210. 228.
      251. 333. 312. 396. 528. 472. 431. 426. 395. 460. 455. 464. 500.
      567. 561. 546. 627. 518. 524. 455. 415. 519. 604. 632. 623. 740.
      847. 879. 835. 786. 698. 694. 713. 710. 631. 622. 581. 557. 613.
      601. 615. 706. 851. 879. 982. 1109. 1237. 1389. 1385. 1257. 1171.
      1055. 1139. 1171. 1242. 1445. 1824. 2123. 2449. 2663. 2742. 2583.
      2498. 2378. 2348. 2148. 2101. 1946. 1902. 1815. 1760. 1746. 1595.
      1516. 1509. 1544. 1416. 1227. 1085. 959. 729. 527. 326. 208. 110.
      61. 33. 13. 8. 6. 5. 1. 3. 2. 0. 0. 0. 0. 0. 0. 0. 0. 0. 0. 0. 0.
      0. 0. 0. 0. 0. 0. 1. 0. 0. 0. 0. 0. 0. 0. 0. 0. 0. 0. 0. 0. 0. 0.
      0. 0. 1. 0. 0. 0. 0. 0. 0. 0. 0. 0. 0. 0. 0. 0. 0. 0. 0. 0. 0. 0.
      0. 0. 0. 0. 0. 0. 0. 0. 0. 0. 0. 0. 0. 0. 0. 0. 0. 0. 0. 0. 0. 0.
      0. 0. 0. 0. 0. 0. 0. 0. 0. 0. 0. 0. 0. 0. 0. 0. 0. 0. 0. 0. 0. 0.
      0. 0. 0.</_>
    <_>
      0. 0. 0. 0. 0. 0. 0. 0. 0. 0. 0. 0. 0. 0. 0. 0. 0. 0. 0. 0. 0. 0.
      0. 0. 0. 0. 0. 0. 0. 0. 0. 0. 0. 0. 0. 0. 0. 0. 0. 0. 0. 0. 2. 5.
      13. 34. 69. 93. 140. 177. 189. 242. 324. 242. 226. 241. 272. 303.
      337. 284. 297. 336. 297. 296. 344. 396. 371. 373. 461. 522. 617.
      590. 638. 679. 643. 642. 552. 560. 611. 605. 621. 563. 535. 539.
      535. 465. 458. 434. 375. 355. 498. 520. 425. 440. 405. 423. 387.
      368. 418. 456. 539. 599. 641. 666. 697. 753. 769. 797. 788. 822.
      894. 884. 978. 1004. 884. 879. 793. 899. 891. 937. 1028. 1098.
      1188. 1338. 1401. 1621. 1673. 1820. 1898. 1966. 2046. 2135. 2046.
      2103. 2067. 2040. 1824. 1877. 1784. 1820. 1880. 1887. 1923. 1829.
      1632. 1415. 1252. 1047. 808. 626. 517. 397. 312. 204. 138. 108.
      78. 44. 40. 24. 24. 20. 15. 17. 15. 12. 4. 0. 2. 0. 1. 0. 0. 0. 0.
      0. 0. 0. 0. 0. 0. 0. 0. 0. 0. 0. 0. 0. 0. 0. 0. 0. 0. 0. 0. 0. 0.
      0. 0. 0. 0. 0. 0. 0. 0. 0. 0. 0. 0. 0. 0. 0. 0. 0. 0. 0. 0. 0. 0.
      0. 0. 0. 0. 0. 0. 0. 0. 0. 0. 0. 0. 0. 0. 0. 0. 0. 0. 0. 0. 0. 0.
      0. 0. 0. 0. 0. 0. 0. 0. 0. 0. 0. 0. 0. 0. 0.</_>
    <_>
      0. 0. 0. 4. 43. 100. 146. 253. 365. 544. 780. 556. 243. 435. 552.
      1011. 1187. 1217. 395. 156. 130. 135. 135. 140. 156. 173. 167.
      180. 246. 197. 218. 193. 203. 216. 248. 220. 227. 220. 275. 274.
      278. 287. 275. 272. 233. 269. 245. 247. 249. 252. 212. 210. 209.
      201. 222. 208. 211. 165. 156. 187. 153. 181. 139. 166. 166. 138.
      138. 151. 168. 169. 170. 172. 168. 168. 131. 150. 152. 147. 167.
      178. 162. 157. 160. 182. 166. 171. 164. 173. 199. 216. 224. 199.
      226. 224. 233. 242. 223. 247. 244. 221. 240. 256. 226. 233. 230.
      249. 226. 257. 231. 227. 224. 213. 197. 200. 177. 206. 182. 151.
      183. 205. 166. 169. 189. 185. 216. 182. 218. 195. 198. 222. 210.
      193. 213. 215. 223. 202. 204. 185. 172. 180. 189. 189. 190. 223.
      207. 229. 261. 243. 263. 286. 306. 300. 351. 343. 399. 328. 357.
      413. 389. 422. 412. 486. 494. 536. 489. 561. 578. 545. 590. 616.
      616. 627. 683. 687. 794. 838. 838. 912. 979. 1061. 1165. 1188.
      1262. 1186. 1181. 1220. 1273. 1203. 1226. 1186. 1226. 1138. 1155.
      1090. 1073. 1134. 979. 981. 928. 945. 846. 829. 763. 760. 782.
      713. 658. 636. 622. 580. 549. 558. 520. 488. 540. 530. 527. 476.
      534. 516. 488. 453. 390. 404. 323. 274. 214. 171. 97. 80. 53. 34.
      22. 11. 3. 2. 2. 1. 0. 0. 0. 0. 0. 0. 0. 0. 0. 0. 0. 0. 0. 0. 0.
      0. 0. 0.</_>
    <_>
      93. 404. 561. 899. 1239. 1780. 2897. 1364. 209. 189. 203. 223.
      190. 245. 211. 197. 193. 180. 187. 196. 188. 234. 241. 234. 249.
      242. 222. 235. 266. 250. 252. 246. 245. 237. 226. 203. 217. 241.
      193. 193. 181. 204. 148. 162. 181. 185. 195. 180. 174. 193. 175.
      177. 180. 186. 166. 164. 164. 177. 151. 160. 172. 149. 164. 157.
      136. 145. 117. 128. 123. 130. 129. 132. 120. 124. 138. 133. 133.
      132. 129. 135. 166. 185. 202. 209. 178. 252. 221. 245. 267. 268.
      256. 273. 245. 302. 280. 274. 293. 266. 239. 279. 261. 247. 255.
      259. 246. 222. 225. 230. 258. 223. 234. 185. 229. 201. 257. 246.
      259. 290. 245. 285. 266. 279. 279. 266. 276. 314. 314. 313. 359.
      402. 403. 422. 461. 519. 490. 518. 560. 496. 539. 541. 533. 561.
      561. 557. 569. 618. 573. 699. 736. 686. 769. 844. 916. 970. 940.
      1007. 1013. 1002. 1003. 1057. 1155. 1034. 1142. 1104. 1077. 1081.
      1088. 1028. 997. 973. 897. 843. 765. 768. 703. 698. 654. 624. 605.
      641. 588. 565. 607. 590. 578. 606. 651. 610. 612. 666. 638. 671.
      645. 626. 653. 584. 578. 520. 507. 514. 506. 412. 421. 388. 365.
      304. 284. 251. 213. 152. 102. 91. 55. 34. 20. 13. 11. 1. 1. 0. 0.
      0. 0. 0. 0. 0. 0. 0. 0. 0. 0. 0. 0. 0. 0. 0. 0. 0. 0. 0. 0. 0. 0.
      0. 0. 0. 0. 0. 0. 0. 0. 0. 0. 0. 0. 0.</_>
    <_>
      2587. 6500. 2622. 1037. 801. 674. 596. 527. 452. 424. 383. 418.
      377. 381. 345. 370. 349. 293. 277. 261. 252. 216. 209. 202. 211.
      190. 203. 219. 215. 203. 204. 215. 209. 185. 208. 190. 206. 240.
      264. 232. 276. 265. 306. 319. 321. 322. 349. 318. 305. 315. 344.
      322. 334. 336. 380. 346. 384. 377. 397. 418. 428. 490. 454. 470.
      492. 463. 520. 499. 504. 511. 524. 535. 492. 568. 570. 552. 571.
      587. 560. 522. 606. 558. 555. 521. 513. 487. 439. 445. 433. 393.
      396. 402. 403. 355. 359. 344. 333. 359. 333. 329. 331. 295. 301.
      320. 319. 296. 284. 308. 293. 299. 270. 288. 313. 271. 275. 279.
      277. 257. 264. 267. 263. 268. 267. 266. 256. 263. 236. 226. 257.
      256. 230. 253. 274. 253. 228. 237. 230. 230. 224. 233. 225. 224.
      228. 229. 235. 251. 230. 224. 210. 245. 209. 184. 190. 190. 188.
      202. 188. 205. 193. 180. 176. 187. 169. 166. 174. 170. 172. 162.
      162. 167. 155. 159. 157. 167. 166. 144. 164. 130. 171. 156. 127.
      163. 158. 146. 145. 165. 133. 116. 145. 146. 128. 163. 154. 162.
      123. 133. 132. 129. 152. 157. 154. 162. 182. 168. 185. 181. 210.
      210. 257. 203. 217. 234. 231. 252. 247. 243. 220. 234. 253. 263.
      288. 316. 327. 361. 363. 409. 391. 398. 365. 355. 364. 321. 318.
      303. 319. 308. 305. 339. 345. 333. 395. 471. 691. 947. 970. 952.
      926. 1026. 864. 325. 6. 0. 0. 0. 0. 0.</_>
    <_>
      580. 7593. 3361. 958. 654. 467. 423. 371. 359. 337. 302. 307. 325.
      319. 304. 331. 304. 271. 275. 286. 286. 274. 256. 246. 270. 253.
      245. 198. 221. 209. 178. 167. 164. 177. 144. 164. 162. 152. 148.
      156. 158. 162. 147. 160. 163. 170. 175. 161. 172. 176. 191. 187.
      165. 154. 173. 167. 152. 161. 167. 142. 147. 150. 152. 133. 124.
      130. 148. 140. 128. 155. 143. 157. 159. 153. 147. 155. 164. 152.
      174. 172. 154. 171. 184. 174. 199. 168. 179. 185. 162. 203. 196.
      194. 186. 230. 202. 217. 208. 216. 209. 205. 226. 198. 220. 209.
      208. 238. 223. 237. 213. 242. 242. 269. 258. 293. 316. 332. 329.
      336. 328. 316. 337. 339. 328. 332. 335. 344. 345. 365. 347. 322.
      352. 342. 308. 345. 380. 336. 386. 349. 399. 376. 376. 388. 435.
      405. 412. 411. 417. 417. 420. 430. 396. 435. 439. 422. 385. 394.
      412. 387. 386. 384. 388. 408. 370. 365. 351. 373. 365. 365. 384.
      367. 358. 396. 397. 359. 379. 398. 388. 363. 379. 404. 343. 381.
      316. 344. 346. 353. 349. 297. 304. 302. 303. 243. 271. 260. 283.
      274. 253. 277. 261. 270. 253. 232. 258. 276. 272. 260. 263. 270.
      275. 272. 249. 259. 276. 235. 238. 270. 293. 283. 307. 321. 302.
      303. 306. 351. 348. 334. 364. 344. 339. 324. 374. 402. 376. 382.
      437. 474. 546. 548. 511. 420. 452. 439. 407. 417. 479. 618. 742.
      1185. 1724. 1982. 1504. 42. 0. 0. 0. 0.</_>
    <_>
      0. 0. 0. 0. 0. 0. 0. 0. 0. 0. 0. 0. 0. 0. 0. 0. 0. 0. 0. 0. 0. 0.
      0. 0. 0. 0. 0. 0. 0. 0. 0. 0. 0. 0. 0. 0. 0. 0. 0. 0. 0. 0. 0. 0.
      0. 0. 0. 0. 0. 0. 0. 0. 0. 0. 0. 0. 0. 0. 0. 0. 0. 0. 0. 0. 0. 0.
      0. 0. 0. 0. 0. 0. 0. 0. 0. 0. 0. 0. 0. 0. 0. 0. 0. 0. 0. 0. 0. 0.
      0. 4. 35. 72. 114. 131. 200. 179. 186. 260. 258. 299. 298. 374.
      349. 413. 579. 683. 763. 803. 932. 1034. 1091. 1046. 999. 981.
      903. 805. 753. 794. 836. 836. 738. 715. 642. 584. 578. 636. 690.
      839. 880. 943. 1054. 1172. 1103. 1096. 1041. 1124. 1149. 1251.
      1455. 1439. 1619. 1670. 1782. 1882. 2091. 2271. 2399. 2439. 2281.
      2270. 2289. 2228. 2207. 2110. 1831. 1680. 1501. 1277. 1076. 980.
      1005. 1037. 1044. 1117. 1123. 1060. 994. 947. 865. 795. 864. 833.
      775. 740. 623. 474. 339. 264. 170. 117. 70. 45. 29. 20. 16. 4. 7.
      2. 0. 0. 0. 0. 0. 0. 0. 0. 0. 0. 0. 0. 0. 0. 0. 0. 0. 0. 0. 0. 0.
      0. 0. 0. 0. 0. 0. 0. 0. 0. 0. 0. 0. 0. 0. 0. 0. 0. 0. 0. 0. 0. 0.
      0. 0. 0. 0. 0. 0. 0. 0. 0. 0. 0. 0. 0. 0. 0. 0. 0. 0. 0. 0. 0. 0.
      0. 0. 0.</_>
    <_>
      0. 0. 0. 0. 0. 0. 0. 0. 0. 0. 0. 0. 0. 0. 0. 0. 0. 0. 0. 0. 0. 0.
      0. 0. 0. 0. 0. 0. 0. 0. 0. 0. 0. 0. 0. 0. 0. 0. 0. 0. 0. 0. 0. 0.
      0. 0. 0. 0. 0. 0. 0. 0. 0. 0. 0. 0. 0. 0. 0. 0. 0. 0. 0. 0. 0. 0.
      0. 0. 0. 0. 0. 0. 0. 0. 0. 0. 0. 0. 0. 0. 0. 0. 0. 0. 0. 0. 0. 0.
      0. 0. 0. 0. 0. 1. 9. 41. 78. 88. 114. 163. 198. 211. 211. 229.
      256. 272. 404. 508. 583. 600. 618. 678. 892. 962. 1164. 1276.
      1307. 989. 719. 651. 626. 576. 514. 508. 510. 467. 532. 612. 667.
      759. 774. 799. 830. 956. 947. 863. 802. 911. 855. 788. 827. 894.
      1122. 1410. 1709. 1942. 2089. 2325. 2554. 2731. 2973. 3021. 2860.
      2768. 2319. 2252. 2066. 2003. 1924. 2015. 2127. 2066. 2063. 1993.
      1962. 1761. 1618. 1381. 1227. 1014. 817. 605. 454. 315. 229. 136.
      89. 56. 52. 47. 37. 12. 12. 5. 1. 0. 0. 0. 0. 0. 0. 0. 0. 0. 0. 0.
      0. 0. 0. 0. 0. 0. 0. 0. 0. 0. 0. 0. 0. 0. 0. 0. 0. 0. 0. 0. 0. 0.
      0. 0. 0. 0. 0. 0. 0. 0. 0. 0. 0. 0. 0. 0. 0. 0. 0. 0. 0. 0. 0. 0.
      0. 0. 0. 0. 0. 0. 0. 0. 0. 0. 0. 0. 0. 0. 0. 0.</_>
    <_>
      0. 0. 0. 0. 0. 0. 0. 0. 0. 0. 0. 0. 0. 0. 0. 0. 0. 0. 0. 0. 0. 0.
      0. 0. 0. 0. 0. 0. 0. 0. 0. 0. 0. 0. 0. 0. 0. 0. 0. 0. 1. 10. 42.
      69. 43. 50. 44. 57. 73. 109. 123. 150. 153. 137. 143. 116. 116.
      107. 120. 115. 138. 111. 107. 100. 107. 122. 125. 120. 129. 120.
      108. 133. 112. 133. 109. 146. 159. 151. 138. 114. 113. 139. 108.
      111. 122. 114. 129. 136. 103. 124. 135. 134. 156. 147. 167. 166.
      169. 177. 182. 229. 220. 221. 272. 246. 225. 248. 259. 250. 276.
      232. 228. 237. 232. 235. 229. 224. 221. 256. 287. 265. 245. 276.
      271. 262. 218. 253. 241. 245. 228. 240. 251. 231. 265. 244. 256.
      237. 272. 266. 246. 267. 257. 276. 266. 274. 278. 278. 279. 232.
      292. 290. 323. 395. 379. 382. 369. 362. 369. 365. 336. 341. 351.
      300. 349. 396. 329. 313. 330. 353. 358. 368. 391. 375. 359. 378.
      346. 353. 394. 399. 416. 386. 429. 437. 466. 440. 457. 496. 508.
      496. 523. 585. 541. 593. 536. 605. 695. 642. 628. 583. 625. 658.
      689. 739. 746. 879. 935. 1047. 1185. 1231. 1193. 1360. 1540. 1647.
      1707. 1588. 1455. 1262. 1189. 1147. 1009. 945. 883. 846. 845. 757.
      807. 820. 757. 718. 645. 655. 622. 640. 698. 680. 702. 691. 727.
      768. 793. 839. 808. 1013. 1304. 1438. 1512. 1329. 1277. 713. 92.
      1. 0. 0. 0. 0. 0. 0.</_>
    <_>
      0. 0. 0. 0. 0. 0. 0. 0. 0. 0. 0. 0. 0. 0. 0. 0. 0. 0. 0. 0. 0. 0.
      0. 0. 0. 0. 0. 0. 0. 0. 0. 0. 0. 0. 0. 0. 0. 0. 1. 3. 2. 3. 3. 11.
      10. 9. 17. 15. 18. 16. 20. 9. 23. 51. 58. 86. 98. 134. 148. 172.
      179. 197. 195. 207. 214. 193. 147. 161. 162. 146. 147. 147. 126.
      150. 155. 110. 119. 83. 100. 104. 131. 120. 115. 123. 135. 121.
      124. 122. 127. 140. 127. 138. 164. 189. 215. 223. 240. 267. 258.
      288. 259. 329. 342. 418. 424. 462. 489. 525. 499. 533. 532. 513.
      514. 483. 426. 420. 367. 345. 367. 358. 376. 374. 343. 340. 321.
      287. 247. 255. 266. 262. 272. 239. 240. 225. 203. 207. 221. 244.
      253. 279. 332. 397. 470. 565. 604. 561. 602. 588. 648. 635. 663.
      647. 721. 736. 738. 819. 847. 755. 867. 858. 915. 970. 962. 969.
      995. 989. 1044. 1093. 1065. 1091. 1071. 1118. 1186. 1199. 1178.
      1264. 1237. 1169. 1186. 1146. 1136. 1108. 1085. 1059. 1042. 975.
      1011. 959. 914. 865. 867. 900. 866. 829. 856. 881. 867. 945. 1059.
      1093. 1123. 1170. 1134. 1155. 1163. 1034. 1051. 954. 906. 727.
      576. 509. 388. 369. 283. 244. 179. 143. 112. 81. 77. 55. 48. 46.
      38. 28. 24. 19. 20. 9. 14. 14. 12. 7. 5. 10. 17. 13. 4. 12. 10. 9.
      5. 4. 1. 1. 4. 2. 0. 0. 0. 0. 0. 0. 0. 0.</_>
    <_>
      0. 0. 0. 0. 0. 0. 0. 0. 0. 0. 0. 0. 0. 0. 0. 0. 0. 0. 0. 0. 0. 0.
      0. 0. 0. 0. 0. 0. 0. 0. 0. 0. 0. 0. 0. 0. 0. 0. 0. 0. 0. 0. 0. 0.
      0. 0. 0. 0. 0. 0. 0. 0. 0. 0. 2. 4. 20. 32. 48. 55. 58. 69. 96.
      109. 106. 119. 147. 162. 152. 110. 146. 159. 191. 279. 353. 470.
      430. 426. 324. 346. 363. 362. 340. 327. 354. 360. 300. 328. 299.
      294. 320. 378. 445. 489. 525. 542. 596. 577. 492. 449. 439. 456.
      425. 374. 368. 456. 452. 496. 472. 524. 564. 576. 535. 484. 510.
      503. 547. 520. 603. 589. 678. 685. 747. 764. 754. 812. 907. 1078.
      1303. 1457. 1503. 1550. 1647. 1760. 1903. 1986. 2099. 2009. 1912.
      1699. 1524. 1390. 1275. 1121. 1109. 988. 1016. 1016. 1057. 1016.
      1041. 965. 1048. 1031. 1049. 1122. 1198. 1261. 1314. 1260. 1307.
      1309. 1174. 1043. 1015. 969. 958. 1009. 1064. 1041. 1069. 960.
      923. 823. 625. 502. 351. 263. 187. 136. 77. 35. 20. 21. 6. 3. 8.
      3. 0. 0. 0. 0. 0. 0. 0. 0. 0. 0. 0. 0. 0. 0. 0. 0. 0. 0. 0. 0. 0.
      0. 0. 0. 0. 0. 0. 0. 0. 0. 0. 0. 0. 0. 0. 0. 0. 0. 0. 0. 0. 0. 0.
      0. 0. 0. 0. 0. 0. 0. 0. 0. 0. 0. 0. 0. 0. 0. 0. 0. 0. 0. 0. 0. 0.
      0. 0. 0.</_>
    <_>
      0. 0. 0. 0. 0. 0. 0. 0. 0. 0. 0. 0. 0. 0. 0. 0. 0. 0. 0. 0. 0. 0.
      0. 0. 0. 0. 0. 0. 0. 0. 0. 0. 0. 0. 0. 0. 0. 0. 0. 0. 0. 0. 0. 0.
      0. 0. 0. 0. 0. 0. 0. 0. 0. 0. 0. 0. 0. 0. 1. 17. 127. 170. 59. 21.
      19. 25. 27. 37. 45. 69. 78. 95. 86. 96. 101. 124. 200. 264. 294.
      302. 388. 377. 361. 366. 362. 381. 406. 371. 355. 358. 385. 413.
      417. 385. 402. 398. 407. 361. 339. 351. 391. 394. 339. 339. 315.
      342. 342. 353. 337. 354. 367. 380. 347. 357. 387. 364. 389. 396.
      397. 393. 412. 397. 375. 363. 395. 386. 376. 428. 431. 392. 391.
      448. 409. 390. 345. 340. 316. 274. 273. 330. 266. 293. 306. 317.
      318. 319. 343. 289. 301. 276. 283. 308. 282. 265. 281. 307. 308.
      361. 362. 364. 367. 364. 402. 449. 432. 416. 402. 436. 417. 471.
      467. 463. 464. 456. 462. 490. 493. 560. 524. 525. 629. 672. 900.
      921. 963. 1020. 1061. 1079. 1147. 1132. 1202. 1220. 1153. 965.
      801. 713. 607. 577. 554. 560. 590. 698. 730. 740. 717. 740. 745.
      742. 709. 644. 591. 519. 527. 511. 521. 554. 534. 559. 610. 650.
      737. 804. 762. 859. 853. 874. 746. 709. 752. 896. 983. 1040. 1173.
      1352. 1397. 1307. 1091. 884. 681. 449. 254. 205. 137. 72. 50. 19.
      4. 1. 0. 0. 0. 0. 0. 0. 0. 0.</_>
    <_>
      0. 0. 0. 0. 0. 0. 0. 0. 0. 0. 0. 0. 0. 0. 0. 0. 0. 0. 0. 0. 0. 0.
      0. 0. 0. 0. 0. 0. 0. 0. 0. 0. 0. 0. 0. 0. 0. 0. 0. 0. 0. 0. 0. 0.
      0. 0. 0. 0. 0. 0. 0. 0. 0. 0. 0. 0. 0. 0. 0. 0. 0. 0. 0. 0. 0. 0.
      0. 0. 0. 0. 0. 5. 15. 18. 41. 34. 57. 55. 67. 57. 70. 84. 77. 86.
      89. 107. 122. 138. 112. 150. 167. 177. 216. 231. 277. 281. 326.
      329. 328. 326. 327. 340. 306. 340. 374. 397. 431. 470. 471. 485.
      491. 438. 492. 444. 360. 339. 322. 333. 293. 251. 280. 296. 279.
      282. 281. 311. 269. 258. 275. 313. 312. 324. 317. 286. 344. 321.
      329. 345. 321. 290. 280. 253. 262. 262. 254. 275. 260. 271. 242.
      269. 264. 258. 279. 291. 314. 328. 355. 342. 368. 421. 389. 430.
      412. 431. 467. 474. 506. 387. 383. 364. 351. 347. 365. 439. 408.
      434. 405. 386. 405. 416. 416. 406. 487. 535. 673. 786. 918. 1026.
      1095. 1170. 1229. 1238. 1228. 1082. 992. 937. 843. 735. 765. 737.
      728. 759. 703. 760. 724. 698. 798. 766. 784. 790. 804. 816. 856.
      910. 828. 751. 776. 704. 729. 797. 767. 837. 963. 972. 773. 729.
      770. 785. 891. 997. 969. 1061. 1123. 1206. 1107. 1050. 1025. 1021.
      1127. 1214. 1176. 998. 851. 670. 624. 421. 250. 192. 115. 54. 32.
      15. 8. 3. 0. 0.</_>
    <_>
      327. 69. 36. 32. 35. 31. 36. 34. 22. 32. 28. 21. 24. 36. 25. 40.
      33. 36. 33. 43. 47. 53. 58. 64. 61. 61. 79. 74. 62. 78. 70. 77.
      82. 77. 80. 86. 90. 81. 98. 102. 115. 122. 100. 115. 116. 96. 93.
      97. 99. 99. 92. 82. 87. 82. 100. 74. 86. 92. 89. 111. 82. 93. 89.
      106. 89. 106. 116. 95. 104. 124. 103. 127. 119. 125. 126. 140.
      154. 163. 199. 166. 201. 197. 188. 194. 204. 200. 197. 212. 215.
      211. 210. 241. 202. 208. 216. 233. 209. 195. 200. 197. 204. 212.
      234. 185. 173. 196. 184. 203. 183. 180. 206. 219. 200. 192. 191.
      193. 188. 221. 177. 206. 223. 201. 223. 262. 244. 252. 242. 272.
      249. 263. 294. 291. 250. 294. 276. 296. 314. 332. 374. 354. 379.
      344. 349. 346. 293. 297. 310. 306. 279. 339. 299. 331. 311. 323.
      362. 351. 367. 363. 334. 367. 362. 406. 414. 410. 442. 401. 474.
      408. 415. 544. 507. 542. 562. 606. 599. 640. 623. 692. 736. 715.
      752. 801. 907. 933. 873. 814. 820. 912. 944. 1048. 1010. 1018.
      1075. 1172. 1398. 1505. 1522. 1506. 1342. 1143. 1081. 969. 950.
      919. 860. 867. 780. 770. 765. 661. 660. 658. 612. 524. 536. 514.
      459. 498. 538. 590. 626. 656. 649. 631. 637. 716. 617. 666. 828.
      1017. 1191. 1030. 838. 819. 763. 763. 767. 858. 900. 637. 290.
      130. 58. 42. 9. 0. 0. 0. 0. 0. 0. 0. 0. 0. 0. 0.</_>
    <_>
      0. 0. 0. 0. 0. 0. 0. 0. 0. 0. 0. 0. 0. 0. 0. 0. 0. 2. 20. 42. 35.
      28. 11. 15. 13. 21. 9. 19. 28. 28. 33. 23. 38. 32. 43. 52. 44. 53.
      55. 46. 65. 68. 66. 73. 79. 56. 68. 63. 66. 86. 61. 93. 73. 85.
      83. 110. 108. 101. 111. 113. 98. 99. 102. 99. 104. 112. 75. 101.
      108. 86. 105. 104. 116. 134. 121. 152. 130. 154. 129. 141. 140.
      154. 184. 182. 223. 219. 218. 218. 222. 213. 235. 238. 253. 244.
      229. 221. 261. 228. 261. 248. 238. 242. 230. 242. 205. 216. 222.
      188. 219. 216. 201. 238. 251. 251. 238. 190. 209. 187. 179. 189.
      220. 181. 187. 170. 167. 146. 183. 155. 194. 190. 161. 204. 201.
      204. 215. 206. 182. 192. 224. 228. 224. 231. 215. 208. 202. 210.
      200. 200. 208. 271. 243. 238. 284. 282. 266. 227. 229. 259. 235.
      234. 201. 201. 213. 228. 219. 232. 237. 258. 231. 265. 246. 216.
      251. 245. 247. 272. 216. 218. 240. 277. 266. 233. 253. 260. 240.
      255. 227. 248. 279. 264. 283. 291. 289. 294. 303. 321. 329. 345.
      340. 344. 322. 354. 356. 382. 374. 380. 384. 445. 434. 445. 492.
      488. 501. 549. 531. 599. 625. 620. 671. 683. 794. 800. 793. 982.
      1011. 1029. 1134. 1259. 1228. 1098. 1073. 1160. 1217. 1364. 1471.
      1718. 2020. 2411. 3042. 3099. 2513. 1779. 1529. 1336. 1393. 1722.
      2197. 3353. 2696. 361. 1. 0. 0. 0. 0. 0.</_>
    <_>
      0. 0. 0. 0. 0. 0. 0. 0. 0. 0. 0. 3. 5. 39. 75. 50. 20. 30. 23. 28.
      31. 34. 30. 50. 50. 60. 68. 48. 63. 64. 55. 57. 65. 70. 79. 61.
      69. 70. 67. 76. 87. 72. 80. 76. 80. 100. 106. 101. 102. 108. 123.
      124. 111. 140. 110. 108. 132. 127. 127. 150. 164. 181. 197. 257.
      263. 260. 261. 320. 280. 311. 327. 307. 280. 299. 300. 298. 288.
      263. 281. 257. 272. 256. 253. 277. 244. 219. 221. 234. 214. 252.
      233. 263. 270. 244. 220. 224. 217. 193. 198. 188. 196. 216. 249.
      252. 222. 246. 183. 205. 208. 244. 212. 237. 221. 213. 198. 218.
      235. 221. 236. 284. 283. 305. 302. 286. 263. 220. 234. 210. 248.
      232. 176. 199. 191. 197. 202. 215. 199. 242. 212. 246. 243. 234.
      209. 231. 265. 202. 227. 227. 223. 235. 207. 226. 235. 213. 204.
      211. 201. 223. 239. 192. 218. 213. 245. 234. 216. 241. 238. 224.
      190. 228. 248. 230. 200. 255. 237. 245. 251. 272. 274. 267. 266.
      248. 274. 304. 238. 319. 261. 292. 317. 303. 338. 328. 315. 341.
      343. 376. 422. 385. 421. 408. 425. 429. 458. 493. 550. 510. 531.
      574. 677. 718. 762. 794. 855. 898. 849. 769. 694. 727. 796. 780.
      886. 920. 1012. 1018. 979. 1166. 1229. 1536. 1899. 2219. 2263.
      2005. 1760. 1398. 1215. 1054. 957. 845. 795. 946. 1254. 1520.
      1962. 2261. 2990. 1343. 159. 1. 0. 0. 0. 0. 0. 0. 0. 0.</_>
    <_>
      0. 0. 9. 93. 297. 342. 122. 38. 52. 39. 56. 59. 67. 79. 83. 86.
      96. 94. 101. 87. 91. 84. 79. 112. 101. 101. 116. 97. 118. 105.
      148. 131. 118. 142. 128. 141. 144. 128. 153. 162. 152. 149. 144.
      155. 196. 218. 182. 160. 216. 207. 213. 208. 244. 222. 227. 231.
      249. 261. 263. 254. 255. 269. 268. 221. 242. 232. 254. 207. 228.
      227. 221. 206. 211. 220. 234. 230. 233. 244. 215. 205. 215. 203.
      218. 219. 205. 230. 186. 226. 232. 204. 201. 220. 205. 186. 215.
      188. 177. 169. 186. 169. 196. 196. 198. 201. 221. 199. 204. 189.
      189. 193. 196. 171. 196. 195. 231. 217. 217. 192. 222. 228. 212.
      222. 214. 199. 200. 168. 181. 197. 175. 194. 222. 204. 186. 193.
      184. 198. 208. 224. 215. 159. 165. 199. 177. 198. 172. 183. 186.
      189. 169. 213. 186. 195. 192. 207. 181. 205. 200. 181. 181. 164.
      185. 180. 201. 222. 195. 208. 189. 207. 180. 212. 194. 207. 210.
      222. 205. 204. 210. 232. 207. 196. 254. 253. 256. 251. 306. 272.
      252. 258. 263. 288. 266. 290. 276. 312. 331. 356. 354. 312. 327.
      355. 353. 337. 389. 348. 376. 383. 406. 394. 376. 490. 462. 445.
      509. 497. 555. 594. 723. 799. 878. 922. 888. 898. 899. 1027. 1103.
      1138. 1228. 1408. 1412. 1494. 1493. 1487. 1334. 1154. 1111. 1004.
      972. 982. 952. 998. 1004. 986. 1129. 1518. 1820. 1680. 1339. 1459.
      1795. 2222. 1932. 610. 16. 0. 0. 0.</_>
    <_>
      0. 0. 0. 24. 193. 353. 175. 77. 49. 64. 59. 48. 59. 88. 96. 106.
      98. 112. 111. 103. 109. 106. 90. 80. 92. 88. 77. 88. 105. 106. 94.
      111. 102. 132. 142. 140. 146. 119. 123. 85. 111. 89. 101. 101. 84.
      106. 110. 114. 133. 134. 133. 159. 157. 210. 228. 224. 238. 204.
      220. 197. 212. 224. 208. 223. 233. 218. 233. 191. 231. 210. 200.
      209. 200. 200. 177. 188. 169. 171. 226. 146. 169. 183. 182. 201.
      175. 175. 186. 172. 186. 153. 176. 178. 177. 150. 165. 155. 151.
      154. 161. 178. 173. 168. 153. 192. 189. 200. 211. 183. 190. 163.
      211. 185. 169. 214. 211. 177. 199. 181. 199. 231. 204. 218. 197.
      209. 200. 214. 213. 146. 206. 168. 185. 169. 151. 181. 182. 171.
      195. 196. 173. 165. 171. 179. 151. 166. 186. 183. 185. 184. 177.
      172. 176. 167. 182. 164. 207. 190. 200. 217. 212. 207. 184. 175.
      207. 227. 207. 229. 223. 240. 221. 216. 247. 230. 233. 224. 228.
      206. 234. 239. 230. 224. 224. 264. 245. 256. 274. 287. 259. 302.
      274. 277. 346. 334. 309. 321. 327. 362. 359. 370. 395. 422. 380.
      379. 425. 417. 431. 437. 440. 498. 547. 645. 701. 776. 699. 798.
      810. 935. 896. 924. 1014. 1142. 1194. 1229. 1301. 1261. 1247.
      1281. 1301. 1317. 1225. 1147. 1213. 1178. 1231. 1255. 1204. 1066.
      1041. 1140. 1306. 1383. 1326. 1406. 1520. 1403. 1225. 1176. 1175.
      1984. 2499. 1258. 256. 11. 0. 0. 0. 0.</_>
    <_>
      0. 0. 0. 0. 0. 0. 0. 0. 0. 0. 0. 0. 0. 0. 0. 0. 0. 0. 0. 0. 2. 19.
      23. 31. 30. 22. 19. 11. 16. 24. 23. 19. 19. 25. 39. 30. 28. 31.
      45. 45. 59. 78. 70. 83. 79. 78. 84. 88. 95. 92. 97. 125. 144. 133.
      130. 141. 209. 188. 196. 189. 226. 243. 276. 304. 381. 384. 391.
      382. 437. 376. 329. 294. 313. 292. 318. 301. 340. 331. 279. 278.
      256. 239. 280. 287. 222. 223. 192. 195. 222. 219. 237. 234. 252.
      244. 285. 288. 341. 315. 345. 348. 333. 355. 390. 404. 414. 409.
      460. 528. 540. 605. 661. 692. 768. 872. 837. 902. 904. 962. 939.
      1054. 1038. 1080. 1124. 1224. 1353. 1488. 1533. 1565. 1522. 1581.
      1517. 1419. 1429. 1302. 1279. 1185. 1085. 1116. 927. 951. 863.
      860. 762. 679. 784. 745. 742. 783. 758. 721. 770. 727. 680. 710.
      686. 724. 860. 893. 897. 1094. 1150. 1208. 1231. 1282. 1275. 1274.
      1194. 1129. 1040. 1058. 995. 861. 842. 797. 690. 638. 556. 513.
      431. 402. 340. 295. 262. 226. 172. 149. 100. 87. 62. 51. 22. 11.
      8. 4. 1. 2. 0. 0. 0. 0. 0. 0. 0. 0. 0. 0. 0. 0. 0. 0. 0. 0. 0. 0.
      0. 0. 0. 0. 0. 0. 0. 0. 0. 0. 0. 0. 0. 0. 0. 0. 0. 0. 0. 0. 0. 0.
      0. 0. 0. 0. 0. 0. 0. 0. 0. 0. 0. 0. 0. 0. 0. 0. 0. 0. 0. 0.</_>
    <_>
      0. 0. 0. 0. 0. 0. 0. 0. 0. 0. 0. 0. 0. 0. 0. 0. 0. 0. 0. 0. 0. 0.
      0. 0. 0. 0. 0. 0. 0. 0. 0. 0. 0. 0. 0. 0. 0. 0. 0. 0. 0. 0. 0. 1.
      2. 7. 10. 10. 14. 9. 16. 16. 22. 30. 32. 49. 53. 65. 69. 54. 51.
      64. 68. 89. 87. 66. 85. 80. 104. 98. 118. 129. 101. 89. 109. 109.
      127. 125. 122. 105. 119. 124. 126. 122. 76. 84. 93. 90. 88. 94.
      119. 109. 102. 87. 82. 88. 97. 90. 98. 82. 72. 92. 72. 72. 79. 98.
      94. 86. 115. 119. 122. 134. 129. 132. 130. 148. 165. 149. 149.
      130. 131. 130. 139. 145. 158. 146. 164. 169. 167. 157. 172. 202.
      195. 216. 243. 228. 239. 204. 213. 206. 175. 217. 199. 237. 216.
      217. 196. 247. 229. 272. 241. 272. 237. 291. 358. 322. 331. 350.
      323. 311. 324. 324. 310. 372. 331. 381. 356. 351. 335. 374. 394.
      379. 438. 406. 435. 462. 405. 433. 425. 446. 431. 476. 495. 545.
      563. 545. 547. 508. 570. 562. 578. 579. 614. 659. 618. 725. 743.
      782. 746. 827. 863. 971. 1067. 1183. 1303. 1549. 1579. 1541. 1385.
      1306. 1169. 1228. 1316. 1286. 1398. 1265. 1230. 1131. 1049. 897.
      861. 804. 726. 766. 699. 696. 792. 801. 880. 929. 956. 1000. 992.
      769. 785. 897. 940. 978. 1065. 983. 1055. 1123. 1272. 1677. 1862.
      2040. 1749. 964. 305. 18. 0. 0. 0. 0. 0. 0.</_>
    <_>
      0. 0. 0. 0. 0. 0. 0. 0. 0. 0. 0. 0. 0. 0. 0. 0. 0. 0. 0. 0. 0. 0.
      0. 0. 0. 0. 0. 0. 0. 0. 0. 0. 0. 0. 0. 0. 0. 0. 0. 0. 0. 0. 0. 0.
      4. 22. 53. 85. 99. 147. 226. 240. 167. 203. 281. 283. 297. 280.
      396. 467. 547. 611. 620. 556. 596. 568. 465. 429. 323. 361. 449.
      444. 517. 461. 447. 473. 665. 729. 774. 766. 738. 737. 756. 701.
      749. 834. 801. 757. 828. 794. 829. 843. 1006. 1086. 1163. 1412.
      1802. 2116. 2325. 2657. 2856. 2789. 2761. 2754. 2964. 3126. 3445.
      3759. 3732. 3826. 3810. 3673. 3213. 2751. 2169. 1596. 1082. 710.
      440. 256. 161. 107. 94. 83. 62. 42. 35. 28. 24. 20. 12. 14. 12. 4.
      4. 2. 0. 0. 0. 0. 0. 0. 0. 0. 0. 0. 0. 0. 0. 0. 0. 0. 0. 0. 0. 0.
      0. 0. 0. 0. 0. 0. 0. 0. 0. 0. 0. 0. 0. 0. 0. 0. 0. 0. 0. 0. 0. 0.
      0. 0. 0. 0. 0. 0. 0. 0. 0. 0. 0. 0. 0. 0. 0. 0. 0. 0. 0. 0. 0. 0.
      0. 0. 0. 0. 0. 0. 0. 0. 0. 0. 0. 0. 0. 0. 0. 0. 0. 0. 0. 0. 0. 0.
      0. 0. 0. 0. 0. 0. 0. 0. 0. 0. 0. 0. 0. 0. 0. 0. 0. 0. 0. 0. 0. 0.
      0. 0. 0. 0. 0. 0. 0. 0. 0. 0. 0. 0.</_>
    <_>
      0. 0. 0. 0. 0. 0. 0. 0. 0. 0. 0. 0. 0. 0. 0. 0. 0. 0. 0. 0. 0. 0.
      0. 0. 0. 0. 0. 0. 0. 0. 0. 0. 0. 0. 0. 0. 0. 0. 0. 0. 0. 0. 0. 0.
      0. 0. 0. 0. 0. 0. 0. 0. 0. 0. 0. 0. 0. 0. 0. 0. 0. 0. 0. 0. 0. 0.
      0. 0. 0. 0. 0. 0. 0. 0. 0. 0. 0. 0. 3. 2. 14. 53. 76. 113. 114.
      125. 145. 122. 144. 171. 198. 207. 210. 204. 195. 221. 227. 294.
      409. 521. 549. 667. 631. 600. 549. 516. 478. 477. 468. 526. 543.
      586. 589. 561. 506. 492. 501. 561. 549. 534. 555. 554. 539. 551.
      590. 511. 531. 510. 596. 582. 605. 653. 698. 699. 651. 638. 699.
      709. 738. 646. 713. 693. 733. 870. 1028. 1083. 1162. 1273. 1343.
      1360. 1404. 1418. 1515. 1560. 1487. 1597. 1403. 1406. 1314. 1289.
      1133. 1187. 1035. 946. 985. 888. 920. 917. 915. 908. 955. 1005.
      1043. 1054. 1108. 1144. 1161. 1221. 1133. 1222. 1295. 1259. 1260.
      1287. 1285. 1209. 1244. 1220. 1160. 1034. 995. 772. 724. 567. 429.
      355. 220. 175. 122. 84. 45. 23. 21. 26. 21. 11. 11. 18. 12. 6. 8.
      5. 8. 13. 2. 5. 7. 3. 4. 4. 6. 1. 0. 1. 1. 4. 0. 1. 1. 0. 0. 0. 0.
      0. 0. 0. 0. 0. 0. 0. 0. 0. 0. 0. 0. 0. 0. 0. 0. 0. 0. 0. 0. 0. 0.
      0.</_>
    <_>
      5467. 365. 251. 197. 178. 147. 154. 161. 144. 146. 159. 148. 147.
      128. 159. 149. 138. 160. 176. 146. 162. 153. 148. 177. 160. 166.
      149. 169. 191. 215. 196. 183. 173. 184. 178. 192. 198. 187. 193.
      261. 211. 204. 213. 250. 230. 235. 199. 200. 233. 216. 211. 205.
      186. 185. 201. 177. 174. 175. 150. 168. 181. 184. 159. 173. 166.
      163. 173. 160. 158. 182. 140. 134. 147. 154. 165. 129. 144. 149.
      140. 126. 131. 144. 143. 135. 127. 173. 174. 211. 184. 223. 214.
      232. 273. 267. 216. 224. 219. 200. 225. 239. 211. 218. 213. 237.
      243. 202. 227. 213. 231. 276. 218. 249. 239. 248. 221. 244. 237.
      232. 199. 203. 229. 264. 221. 221. 258. 292. 269. 281. 324. 328.
      322. 358. 325. 322. 346. 316. 358. 374. 353. 367. 340. 380. 371.
      351. 352. 401. 439. 429. 481. 488. 490. 588. 618. 714. 728. 652.
      638. 542. 537. 496. 534. 487. 501. 540. 523. 450. 504. 533. 510.
      513. 553. 557. 613. 620. 747. 762. 794. 782. 879. 919. 929. 963.
      957. 951. 940. 886. 848. 791. 765. 661. 703. 622. 598. 599. 572.
      528. 521. 495. 548. 554. 558. 572. 595. 492. 564. 539. 563. 584.
      538. 547. 524. 557. 519. 515. 486. 516. 579. 638. 611. 603. 616.
      662. 607. 562. 525. 464. 442. 479. 462. 484. 479. 432. 269. 290.
      235. 201. 126. 29. 2. 0. 0. 0. 0. 0. 0. 0. 0. 0. 0. 0. 0. 0. 0. 0.
      0. 0.</_>
    <_>
      0. 0. 0. 0. 0. 0. 0. 0. 2. 13. 26. 38. 56. 39. 22. 8. 17. 18. 11.
      19. 26. 21. 20. 27. 33. 31. 46. 64. 57. 47. 46. 63. 67. 56. 77.
      66. 73. 93. 90. 88. 84. 99. 87. 97. 134. 207. 218. 229. 235. 218.
      260. 255. 271. 275. 267. 286. 272. 277. 259. 292. 288. 308. 264.
      282. 299. 295. 278. 269. 292. 250. 253. 266. 248. 255. 277. 306.
      304. 322. 317. 288. 341. 316. 300. 258. 272. 262. 287. 256. 254.
      248. 235. 276. 248. 227. 221. 225. 232. 247. 230. 262. 217. 251.
      231. 255. 223. 220. 237. 201. 214. 221. 194. 200. 223. 237. 266.
      276. 272. 294. 275. 270. 274. 298. 277. 260. 257. 261. 307. 277.
      293. 311. 320. 339. 302. 317. 287. 253. 251. 248. 278. 288. 272.
      231. 224. 272. 277. 284. 327. 332. 329. 298. 295. 324. 302. 259.
      305. 283. 299. 299. 299. 342. 379. 381. 316. 318. 372. 392. 425.
      459. 420. 455. 407. 441. 516. 551. 577. 567. 604. 614. 634. 661.
      641. 667. 750. 823. 896. 1010. 1127. 1119. 1122. 1159. 1243. 1213.
      1256. 1239. 1146. 1094. 978. 1052. 1103. 1130. 1032. 923. 955.
      1041. 935. 925. 813. 786. 761. 768. 806. 826. 828. 893. 816. 767.
      805. 788. 832. 840. 808. 813. 770. 940. 1119. 1231. 1310. 1064.
      655. 288. 116. 20. 2. 0. 0. 0. 0. 0. 0. 0. 0. 0. 0. 0. 0. 0. 0. 0.
      0. 0. 0. 0. 0. 0. 0. 0.</_>
    <_>
      0. 0. 0. 0. 0. 0. 0. 0. 0. 0. 0. 0. 0. 0. 0. 0. 0. 0. 0. 0. 0. 0.
      0. 0. 0. 0. 0. 0. 0. 0. 0. 0. 0. 0. 0. 0. 0. 0. 0. 0. 0. 0. 0. 1.
      1. 5. 4. 8. 9. 9. 20. 26. 37. 50. 71. 64. 77. 77. 105. 107. 118.
      149. 155. 169. 170. 188. 200. 228. 239. 267. 218. 202. 238. 228.
      258. 238. 228. 217. 245. 262. 249. 270. 250. 248. 226. 246. 284.
      269. 275. 254. 233. 230. 245. 272. 275. 288. 271. 296. 306. 329.
      296. 275. 281. 249. 303. 292. 299. 283. 328. 327. 294. 237. 261.
      238. 278. 239. 250. 264. 287. 299. 304. 308. 365. 422. 393. 438.
      451. 428. 494. 525. 537. 518. 608. 621. 611. 634. 657. 692. 701.
      639. 663. 703. 739. 735. 764. 773. 823. 863. 872. 932. 948. 1076.
      1181. 1208. 1291. 1280. 1286. 1389. 1365. 1318. 1389. 1328. 1357.
      1321. 1368. 1304. 1255. 1247. 1250. 1264. 1222. 1188. 1208. 1224.
      1190. 1306. 1242. 1114. 1083. 958. 855. 788. 704. 721. 587. 653.
      633. 630. 663. 655. 693. 734. 791. 785. 782. 790. 792. 767. 767.
      691. 594. 495. 488. 354. 332. 262. 234. 204. 160. 155. 120. 85.
      80. 35. 32. 24. 28. 18. 8. 9. 4. 5. 3. 6. 7. 3. 1. 2. 6. 6. 2. 0.
      0. 1. 0. 0. 0. 0. 0. 0. 0. 0. 0. 0. 0. 0. 0. 0. 0. 0. 0. 0. 0. 0.
      0. 0.</_>
    <_>
      0. 0. 0. 0. 0. 0. 0. 0. 0. 0. 0. 0. 0. 0. 0. 0. 0. 0. 0. 0. 0. 0.
      0. 0. 0. 0. 0. 0. 0. 0. 0. 0. 0. 0. 0. 0. 0. 0. 0. 0. 0. 0. 0. 0.
      0. 0. 0. 0. 0. 0. 0. 0. 0. 0. 0. 0. 0. 1. 9. 6. 13. 15. 25. 21.
      27. 20. 31. 41. 40. 42. 55. 69. 73. 68. 101. 120. 130. 144. 156.
      204. 226. 289. 285. 274. 308. 335. 315. 356. 346. 322. 233. 238.
      230. 190. 181. 199. 193. 187. 229. 214. 235. 235. 295. 283. 322.
      289. 308. 282. 303. 307. 345. 335. 313. 306. 322. 298. 280. 334.
      334. 304. 312. 289. 261. 262. 279. 256. 257. 328. 311. 322. 360.
      384. 387. 414. 501. 484. 522. 578. 614. 659. 712. 820. 806. 851.
      854. 941. 912. 850. 837. 823. 863. 839. 843. 809. 972. 967. 1043.
      1164. 1254. 1305. 1471. 1446. 1604. 1642. 1627. 1651. 1616. 1555.
      1540. 1562. 1396. 1423. 1372. 1238. 1282. 1134. 1072. 1055. 997.
      1040. 978. 946. 920. 905. 906. 852. 806. 765. 745. 830. 847. 879.
      910. 910. 981. 1012. 1033. 955. 954. 876. 817. 768. 725. 591. 458.
      366. 280. 215. 155. 110. 72. 42. 38. 29. 21. 19. 7. 6. 11. 12. 12.
      14. 11. 10. 8. 7. 6. 4. 7. 5. 2. 2. 1. 1. 0. 0. 0. 0. 0. 0. 0. 0.
      0. 0. 0. 0. 0. 0. 0. 0. 0. 0. 0. 0. 0. 0.</_>
    <_>
      0. 0. 0. 0. 0. 0. 0. 0. 0. 0. 0. 0. 0. 0. 0. 0. 0. 0. 0. 0. 0. 0.
      0. 0. 0. 0. 0. 0. 0. 0. 0. 0. 0. 0. 0. 0. 0. 0. 0. 0. 0. 0. 0. 0.
      0. 0. 0. 0. 0. 0. 0. 0. 0. 0. 0. 0. 0. 0. 0. 0. 0. 3. 17. 21. 72.
      84. 111. 130. 172. 135. 198. 212. 187. 208. 258. 200. 199. 186.
      161. 149. 198. 221. 211. 237. 252. 270. 257. 273. 277. 273. 344.
      395. 426. 423. 426. 476. 494. 488. 488. 551. 604. 560. 666. 616.
      620. 621. 627. 648. 751. 890. 943. 892. 876. 906. 831. 823. 843.
      905. 967. 996. 1038. 1052. 1133. 1159. 1181. 1310. 1468. 1571.
      1694. 1877. 1804. 2015. 2030. 1992. 1814. 1673. 1567. 1526. 1407.
      1323. 1179. 1137. 1132. 1069. 1006. 942. 984. 1020. 1046. 1138.
      1146. 1186. 1147. 1160. 1163. 1073. 1145. 1081. 1068. 1102. 1100.
      1122. 1229. 1090. 1075. 969. 864. 790. 674. 611. 479. 361. 311.
      255. 179. 127. 84. 77. 48. 36. 20. 19. 19. 17. 4. 6. 2. 2. 2. 1.
      0. 1. 0. 1. 0. 0. 0. 0. 0. 0. 0. 0. 0. 0. 0. 0. 0. 0. 0. 0. 0. 0.
      0. 0. 0. 0. 0. 0. 0. 0. 0. 0. 0. 0. 0. 0. 0. 0. 0. 0. 0. 0. 0. 0.
      0. 0. 0. 0. 0. 0. 0. 0. 0. 0. 0. 0. 0. 0. 0. 0. 0. 0. 0. 0. 0. 0.</_>
    <_>
      0. 0. 0. 0. 0. 0. 0. 0. 0. 0. 0. 0. 0. 0. 0. 0. 0. 0. 0. 0. 0. 0.
      0. 0. 0. 0. 0. 0. 0. 0. 0. 0. 0. 0. 0. 0. 0. 0. 0. 0. 0. 0. 0. 0.
      0. 0. 0. 0. 0. 0. 0. 0. 0. 0. 0. 0. 0. 0. 0. 0. 0. 0. 0. 0. 0. 0.
      0. 2. 15. 70. 95. 128. 114. 163. 197. 230. 300. 294. 278. 319.
      287. 195. 185. 143. 148. 201. 220. 249. 275. 229. 199. 183. 156.
      159. 186. 230. 241. 282. 339. 361. 359. 415. 503. 517. 604. 617.
      621. 566. 560. 581. 596. 581. 582. 588. 576. 617. 704. 849. 845.
      901. 942. 917. 913. 1057. 1109. 1311. 1372. 1427. 1455. 1601.
      1653. 1714. 1920. 1993. 1922. 2008. 2027. 2017. 1907. 1718. 1567.
      1399. 1227. 1167. 1108. 978. 977. 963. 955. 963. 1045. 1071. 1128.
      1129. 1203. 1231. 1301. 1285. 1356. 1295. 1329. 1408. 1424. 1491.
      1343. 1340. 1183. 1104. 1050. 958. 840. 722. 529. 456. 291. 236.
      193. 110. 85. 49. 38. 20. 7. 5. 3. 0. 0. 0. 0. 0. 0. 0. 1. 0. 0.
      0. 0. 0. 0. 0. 0. 0. 0. 0. 0. 0. 0. 0. 0. 0. 0. 0. 0. 0. 0. 0. 0.
      0. 0. 0. 0. 0. 0. 0. 0. 0. 0. 0. 0. 0. 0. 0. 0. 0. 0. 0. 0. 0. 0.
      0. 0. 0. 0. 0. 0. 0. 0. 0. 0. 0. 0. 0. 0. 0. 0. 0.</_>
    <_>
      0. 0. 0. 0. 0. 0. 0. 0. 0. 0. 0. 0. 0. 0. 0. 0. 3. 6. 9. 18. 31.
      32. 28. 29. 43. 37. 43. 38. 40. 38. 38. 34. 38. 45. 41. 60. 65.
      67. 89. 103. 112. 146. 153. 189. 218. 233. 239. 221. 211. 231.
      243. 202. 199. 228. 232. 208. 201. 209. 246. 247. 272. 271. 275.
      269. 242. 279. 267. 334. 320. 270. 230. 280. 256. 253. 291. 311.
      283. 289. 292. 293. 346. 336. 332. 302. 321. 319. 312. 304. 276.
      321. 319. 353. 335. 327. 257. 330. 314. 290. 350. 375. 350. 358.
      380. 409. 387. 337. 332. 332. 344. 372. 370. 417. 377. 386. 429.
      471. 468. 452. 452. 458. 471. 477. 481. 480. 558. 531. 509. 536.
      581. 541. 540. 555. 547. 600. 602. 600. 596. 655. 600. 667. 635.
      688. 686. 723. 752. 751. 810. 754. 787. 799. 816. 811. 810. 806.
      811. 789. 814. 791. 766. 832. 853. 809. 872. 956. 952. 1050. 1044.
      1073. 1131. 1239. 1313. 1348. 1332. 1365. 1372. 1378. 1239. 1219.
      1215. 1167. 1071. 1034. 983. 1022. 908. 890. 851. 834. 779. 688.
      699. 643. 558. 542. 450. 435. 360. 324. 277. 244. 228. 181. 141.
      123. 90. 62. 46. 55. 32. 37. 31. 27. 22. 21. 25. 22. 22. 16. 19.
      28. 20. 12. 10. 5. 2. 9. 9. 7. 0. 0. 1. 1. 0. 0. 0. 0. 0. 0. 0. 0.
      0. 0. 0. 0. 0. 0. 0. 0. 0. 0. 0. 0. 0. 0. 0. 0.</_>
    <_>
      0. 0. 0. 0. 0. 0. 0. 0. 0. 0. 0. 0. 0. 0. 0. 0. 0. 0. 0. 0. 0. 0.
      0. 0. 0. 0. 0. 0. 0. 0. 0. 0. 0. 0. 0. 0. 0. 0. 0. 0. 0. 0. 0. 0.
      0. 0. 0. 0. 0. 0. 0. 0. 0. 0. 0. 0. 0. 0. 0. 0. 0. 0. 0. 0. 0. 0.
      0. 0. 0. 0. 0. 0. 0. 0. 0. 0. 0. 0. 0. 0. 0. 0. 0. 0. 0. 0. 0. 0.
      0. 0. 0. 0. 0. 0. 0. 0. 0. 0. 0. 0. 0. 0. 7. 41. 87. 130. 176.
      232. 274. 403. 485. 646. 720. 854. 902. 818. 731. 782. 882. 935.
      971. 1075. 1297. 1558. 1654. 1666. 1828. 2064. 2220. 2195. 2421.
      2761. 3064. 3438. 3378. 3555. 3642. 3655. 3610. 3537. 3368. 3411.
      3199. 3051. 2666. 2218. 1874. 1423. 1222. 1131. 1098. 1012. 1080.
      1122. 936. 780. 489. 308. 159. 76. 41. 22. 10. 4. 3. 2. 2. 0. 0.
      0. 0. 0. 0. 0. 0. 0. 0. 0. 0. 0. 0. 0. 0. 0. 0. 0. 0. 0. 0. 0. 0.
      0. 0. 0. 0. 0. 0. 0. 0. 0. 0. 0. 0. 0. 0. 0. 0. 0. 0. 0. 0. 0. 0.
      0. 0. 0. 0. 0. 0. 0. 0. 0. 0. 0. 0. 0. 0. 0. 0. 0. 0. 0. 0. 0. 0.
      0. 0. 0. 0. 0. 0. 0. 0. 0. 0. 0. 0. 0. 0. 0. 0. 0. 0. 0. 0. 0.</_>
    <_>
      0. 0. 0. 0. 0. 0. 0. 0. 5. 7. 3. 1. 2. 1. 11. 82. 119. 262. 592.
      297. 37. 12. 9. 10. 8. 13. 6. 7. 12. 15. 10. 13. 18. 16. 11. 25.
      55. 77. 104. 152. 123. 148. 162. 141. 141. 154. 190. 181. 164.
      178. 169. 209. 162. 201. 210. 238. 193. 213. 234. 217. 224. 252.
      278. 237. 268. 283. 310. 320. 280. 312. 267. 329. 347. 358. 314.
      331. 306. 238. 281. 285. 306. 319. 320. 312. 345. 339. 413. 426.
      429. 400. 340. 283. 240. 239. 268. 262. 246. 221. 230. 244. 194.
      226. 198. 187. 233. 254. 299. 315. 299. 302. 310. 274. 297. 278.
      267. 270. 278. 263. 286. 251. 250. 261. 286. 291. 357. 371. 385.
      386. 421. 483. 550. 524. 530. 544. 544. 580. 575. 568. 516. 562.
      595. 561. 569. 611. 645. 657. 703. 700. 779. 915. 880. 951. 1055.
      1068. 1068. 1065. 1029. 1033. 994. 1076. 1089. 1100. 1060. 1028.
      1006. 934. 943. 811. 788. 781. 807. 772. 739. 747. 723. 752. 798.
      724. 808. 792. 778. 754. 758. 751. 783. 796. 821. 875. 902. 868.
      921. 993. 1068. 1071. 1037. 985. 980. 884. 892. 826. 756. 667.
      638. 565. 545. 444. 420. 342. 256. 221. 171. 156. 113. 88. 67. 37.
      27. 27. 26. 17. 11. 7. 2. 2. 2. 3. 0. 1. 0. 2. 0. 1. 1. 0. 0. 0.
      0. 0. 0. 0. 0. 0. 0. 0. 0. 0. 0. 0. 0. 0. 0. 0. 0. 0. 0. 0.</_>
    <_>
      0. 0. 0. 0. 0. 0. 0. 0. 0. 0. 0. 0. 5. 38. 66. 123. 249. 167. 30.
      10. 5. 7. 5. 7. 4. 7. 6. 5. 5. 7. 6. 7. 7. 6. 10. 8. 14. 10. 14.
      17. 17. 19. 21. 23. 29. 36. 28. 46. 48. 46. 56. 80. 102. 129. 126.
      175. 172. 166. 169. 184. 185. 166. 187. 230. 236. 270. 242. 224.
      246. 258. 224. 240. 286. 286. 291. 342. 337. 393. 414. 416. 353.
      403. 376. 421. 447. 510. 495. 432. 433. 380. 334. 334. 302. 255.
      272. 260. 279. 269. 272. 222. 221. 190. 225. 232. 233. 211. 213.
      225. 189. 222. 237. 223. 225. 260. 258. 250. 292. 302. 309. 291.
      302. 318. 285. 315. 310. 338. 347. 341. 333. 391. 365. 417. 417.
      404. 407. 403. 423. 403. 424. 405. 431. 448. 471. 472. 498. 485.
      573. 540. 573. 555. 605. 644. 625. 694. 701. 688. 740. 683. 783.
      887. 913. 961. 996. 962. 1005. 1006. 1121. 993. 1186. 1161. 1166.
      1170. 1168. 1282. 1335. 1269. 1226. 1187. 1151. 1140. 1125. 1080.
      1114. 1162. 1288. 1251. 1312. 1449. 1466. 1501. 1608. 1572. 1408.
      1388. 1277. 1142. 1131. 941. 810. 699. 620. 505. 385. 323. 256.
      196. 162. 129. 104. 74. 53. 37. 46. 29. 19. 11. 11. 7. 11. 3. 4.
      0. 0. 2. 1. 0. 0. 0. 0. 0. 0. 0. 0. 0. 0. 0. 0. 0. 0. 0. 0. 0. 0.
      0. 0. 0. 0. 0. 0. 0. 0. 0. 0. 0. 0. 0.</_>
    <_>
      0. 0. 0. 0. 0. 0. 1. 6. 2. 11. 18. 16. 19. 18. 22. 18. 24. 20. 27.
      34. 39. 41. 40. 47. 32. 51. 36. 36. 34. 42. 35. 45. 49. 45. 36.
      45. 40. 50. 44. 45. 30. 73. 76. 63. 79. 93. 91. 117. 109. 82. 88.
      83. 81. 96. 82. 99. 93. 86. 102. 116. 142. 144. 170. 124. 125.
      110. 100. 106. 123. 90. 120. 128. 133. 188. 206. 245. 229. 280.
      280. 287. 243. 248. 209. 189. 156. 156. 142. 141. 110. 122. 140.
      156. 145. 123. 165. 166. 166. 182. 190. 223. 204. 229. 226. 262.
      275. 322. 343. 366. 407. 428. 402. 433. 397. 396. 346. 382. 380.
      373. 421. 368. 325. 341. 358. 350. 366. 359. 347. 346. 315. 297.
      319. 361. 357. 367. 349. 339. 319. 346. 325. 337. 369. 386. 422.
      420. 379. 370. 398. 348. 386. 400. 331. 354. 412. 394. 385. 390.
      400. 389. 363. 425. 394. 401. 434. 439. 490. 471. 512. 555. 621.
      707. 799. 795. 892. 1028. 1073. 1109. 1181. 1304. 1286. 1330.
      1391. 1520. 1518. 1450. 1390. 1197. 898. 848. 774. 808. 773. 747.
      769. 794. 792. 843. 878. 894. 929. 890. 885. 895. 821. 721. 629.
      643. 614. 621. 691. 757. 719. 627. 542. 499. 486. 490. 548. 610.
      669. 693. 760. 854. 1073. 1154. 1345. 1310. 1032. 808. 472. 272.
      143. 61. 18. 2. 0. 0. 0. 0. 0. 0. 0. 0. 0. 0. 0. 0. 0. 0. 0. 0. 0.
      0. 0. 0. 0. 0.</_>
    <_>
      1413. 131. 79. 73. 51. 49. 60. 59. 39. 56. 49. 44. 52. 51. 52. 49.
      48. 46. 61. 69. 79. 70. 79. 83. 85. 109. 104. 104. 103. 93. 127.
      118. 126. 108. 127. 135. 110. 124. 149. 134. 156. 142. 136. 137.
      132. 125. 144. 127. 151. 175. 153. 193. 158. 202. 191. 186. 202.
      243. 278. 254. 265. 252. 278. 252. 282. 290. 312. 365. 351. 305.
      281. 263. 277. 256. 320. 304. 301. 308. 275. 255. 290. 307. 294.
      320. 316. 310. 319. 296. 326. 314. 339. 331. 340. 366. 336. 354.
      368. 378. 364. 365. 364. 389. 352. 349. 356. 345. 358. 318. 356.
      358. 357. 332. 318. 348. 337. 326. 326. 303. 291. 297. 311. 345.
      306. 311. 290. 301. 317. 327. 314. 305. 352. 390. 441. 424. 488.
      501. 620. 720. 745. 798. 935. 1043. 1075. 1109. 1113. 1218. 1210.
      1256. 1194. 1172. 1040. 959. 970. 806. 792. 745. 773. 721. 672.
      578. 556. 489. 521. 499. 468. 495. 468. 516. 517. 511. 538. 502.
      530. 502. 516. 480. 501. 491. 489. 508. 499. 456. 470. 467. 454.
      466. 460. 432. 394. 433. 448. 529. 471. 480. 456. 444. 458. 500.
      500. 574. 568. 587. 625. 658. 718. 808. 815. 858. 841. 796. 709.
      727. 723. 690. 659. 764. 684. 727. 615. 455. 277. 155. 58. 18. 2.
      1. 0. 0. 0. 0. 0. 0. 0. 0. 0. 0. 0. 0. 0. 0. 0. 0. 0. 0. 0. 0. 0.
      0. 0. 0. 0. 0. 0. 0. 0. 0.</_>
    <_>
      0. 0. 0. 0. 0. 0. 0. 0. 0. 0. 0. 0. 0. 0. 0. 0. 0. 0. 0. 0. 0. 0.
      0. 0. 0. 0. 0. 0. 0. 0. 0. 0. 0. 0. 0. 0. 0. 0. 0. 0. 0. 0. 0. 0.
      0. 0. 0. 0. 0. 0. 0. 0. 0. 0. 0. 0. 0. 0. 0. 0. 0. 0. 0. 0. 0. 0.
      0. 0. 0. 0. 0. 0. 0. 0. 0. 0. 0. 0. 0. 0. 0. 0. 0. 0. 0. 0. 0. 1.
      1. 3. 2. 10. 28. 36. 45. 67. 73. 68. 67. 72. 64. 62. 56. 60. 83.
      93. 101. 124. 114. 137. 125. 138. 148. 152. 164. 150. 163. 168.
      196. 215. 177. 181. 204. 166. 202. 221. 195. 225. 236. 235. 256.
      215. 263. 254. 240. 248. 232. 264. 238. 243. 239. 249. 227. 239.
      250. 249. 250. 235. 266. 265. 248. 268. 290. 295. 298. 279. 325.
      353. 352. 402. 423. 474. 508. 493. 617. 615. 646. 696. 795. 844.
      845. 847. 968. 968. 1069. 1043. 1099. 1146. 1134. 1245. 1209.
      1177. 1262. 1278. 1244. 1194. 1288. 1206. 1164. 1275. 1201. 1166.
      1109. 1116. 1208. 1086. 1181. 1227. 1138. 1158. 1226. 1297. 1275.
      1366. 1438. 1370. 1425. 1406. 1384. 1390. 1351. 1239. 1243. 1139.
      1197. 1113. 1168. 1136. 1164. 1181. 1187. 1066. 1118. 1084. 951.
      846. 796. 661. 577. 476. 418. 300. 280. 201. 135. 96. 82. 58. 35.
      33. 26. 17. 12. 9. 3. 3. 1. 0. 0. 0. 0. 0. 0. 0. 0. 0.</_>
    <_>
      0. 0. 0. 0. 0. 0. 0. 0. 0. 0. 0. 0. 0. 0. 0. 0. 0. 0. 0. 0. 0. 0.
      0. 0. 0. 0. 0. 0. 0. 0. 0. 0. 0. 0. 0. 0. 0. 0. 0. 0. 0. 0. 0. 0.
      0. 0. 0. 0. 0. 0. 0. 0. 0. 0. 0. 0. 0. 0. 0. 0. 0. 0. 0. 0. 0. 0.
      0. 0. 0. 0. 0. 0. 0. 0. 0. 0. 0. 0. 0. 0. 0. 0. 3. 5. 6. 16. 22.
      36. 47. 64. 81. 74. 106. 108. 109. 118. 129. 154. 206. 242. 251.
      249. 285. 295. 298. 286. 312. 323. 348. 358. 345. 356. 359. 326.
      305. 300. 290. 276. 291. 318. 309. 278. 287. 316. 335. 337. 364.
      359. 372. 409. 426. 440. 403. 454. 444. 429. 474. 469. 473. 454.
      433. 442. 453. 515. 481. 463. 448. 476. 453. 474. 449. 446. 423.
      404. 463. 413. 452. 450. 447. 504. 523. 549. 579. 606. 605. 641.
      640. 667. 754. 785. 750. 815. 818. 861. 879. 885. 833. 892. 932.
      936. 939. 1008. 1031. 1033. 1142. 1242. 1298. 1260. 1336. 1380.
      1412. 1389. 1357. 1301. 1305. 1280. 1212. 1141. 1131. 1052. 995.
      977. 915. 1020. 942. 979. 978. 1009. 987. 1043. 969. 1018. 950.
      991. 1000. 965. 907. 849. 795. 833. 820. 753. 719. 662. 565. 475.
      439. 363. 341. 280. 208. 167. 149. 100. 92. 76. 46. 54. 40. 29.
      39. 18. 14. 7. 2. 2. 1. 1. 0. 0. 0. 0. 0. 0. 0. 0.</_>
    <_>
      0. 0. 0. 0. 19. 135. 238. 382. 208. 90. 192. 219. 265. 221. 186.
      203. 170. 190. 143. 143. 146. 172. 172. 175. 163. 163. 159. 140.
      149. 177. 192. 234. 198. 196. 177. 180. 153. 177. 209. 235. 232.
      254. 227. 215. 173. 179. 142. 160. 186. 183. 185. 191. 162. 159.
      157. 149. 159. 154. 170. 175. 142. 149. 155. 141. 167. 182. 203.
      204. 192. 176. 213. 167. 208. 192. 196. 210. 220. 232. 210. 231.
      220. 258. 226. 194. 239. 222. 200. 203. 223. 198. 207. 246. 254.
      281. 268. 252. 265. 253. 245. 245. 266. 255. 244. 284. 265. 297.
      316. 298. 328. 292. 313. 327. 329. 333. 312. 306. 332. 272. 275.
      281. 313. 301. 276. 301. 321. 300. 315. 341. 292. 329. 310. 312.
      297. 324. 359. 348. 370. 320. 347. 366. 397. 436. 483. 500. 482.
      520. 466. 558. 591. 580. 607. 626. 633. 613. 643. 665. 645. 618.
      646. 648. 680. 660. 709. 717. 694. 755. 807. 795. 720. 797. 731.
      833. 749. 808. 768. 734. 768. 766. 720. 701. 686. 715. 722. 724.
      743. 764. 795. 880. 874. 877. 940. 894. 933. 976. 884. 855. 872.
      847. 795. 735. 753. 760. 700. 696. 646. 646. 637. 565. 551. 546.
      551. 514. 497. 520. 497. 435. 439. 450. 436. 427. 439. 429. 419.
      385. 403. 359. 375. 327. 277. 231. 210. 146. 108. 60. 37. 31. 28.
      24. 5. 5. 5. 8. 4. 1. 0. 0. 0. 0. 0. 0. 0. 0. 0. 0. 0. 0.</_>
    <_>
      0. 14. 144. 205. 190. 32. 44. 47. 62. 70. 84. 101. 137. 175. 154.
      237. 239. 257. 224. 198. 199. 188. 226. 177. 121. 158. 204. 217.
      182. 196. 225. 204. 185. 204. 158. 190. 232. 240. 239. 230. 230.
      203. 204. 184. 158. 179. 168. 151. 158. 176. 225. 216. 235. 261.
      257. 218. 227. 183. 199. 172. 187. 171. 197. 186. 182. 190. 198.
      205. 186. 212. 194. 244. 251. 237. 261. 223. 251. 281. 270. 322.
      296. 275. 277. 306. 295. 304. 280. 250. 307. 303. 288. 283. 244.
      242. 235. 237. 259. 241. 262. 265. 247. 268. 288. 307. 279. 298.
      303. 273. 312. 345. 341. 316. 291. 291. 307. 307. 319. 330. 347.
      317. 311. 345. 324. 383. 363. 361. 366. 382. 400. 394. 468. 479.
      544. 535. 592. 598. 641. 720. 726. 746. 765. 783. 792. 806. 816.
      766. 834. 828. 851. 811. 857. 889. 825. 841. 835. 818. 814. 795.
      891. 839. 814. 847. 865. 870. 856. 881. 871. 904. 873. 911. 935.
      928. 925. 879. 935. 881. 857. 865. 865. 811. 807. 769. 817. 671.
      656. 643. 583. 516. 493. 468. 466. 438. 422. 345. 450. 444. 437.
      455. 453. 473. 482. 453. 494. 478. 422. 384. 475. 490. 439. 497.
      445. 497. 414. 416. 366. 369. 268. 238. 191. 124. 91. 57. 60. 44.
      25. 20. 19. 8. 12. 6. 10. 6. 3. 7. 1. 0. 1. 0. 0. 0. 0. 0. 0. 0.
      0. 0. 0. 0. 0. 0. 0. 0. 0. 0. 0. 0.</_>
    <_>
      0. 0. 0. 0. 0. 0. 0. 0. 0. 0. 0. 0. 0. 0. 0. 0. 0. 0. 0. 0. 0. 0.
      0. 0. 0. 0. 0. 0. 0. 0. 0. 0. 0. 0. 0. 0. 0. 0. 0. 0. 0. 0. 0. 0.
      0. 0. 0. 0. 0. 0. 0. 0. 0. 0. 0. 0. 0. 23. 106. 195. 189. 183.
      224. 248. 332. 452. 609. 647. 620. 724. 728. 702. 606. 522. 447.
      424. 451. 439. 531. 629. 719. 844. 925. 988. 1092. 1012. 1049.
      978. 1002. 1029. 1110. 1181. 1192. 1172. 1181. 1288. 1337. 1594.
      1733. 1957. 2108. 2269. 2526. 2673. 2672. 2548. 2578. 2472. 2377.
      2198. 1962. 1722. 1518. 1366. 1367. 1357. 1336. 1460. 1582. 1738.
      1848. 1858. 1806. 1804. 1667. 1565. 1392. 1229. 946. 659. 427.
      279. 192. 105. 72. 70. 52. 57. 38. 39. 29. 11. 9. 3. 1. 0. 0. 0.
      0. 0. 0. 0. 0. 0. 0. 0. 0. 0. 0. 0. 0. 0. 0. 0. 0. 0. 0. 0. 0. 0.
      0. 0. 0. 0. 0. 0. 0. 0. 0. 0. 0. 0. 0. 0. 0. 0. 0. 0. 0. 0. 0. 0.
      0. 0. 0. 0. 0. 0. 0. 0. 0. 0. 0. 0. 0. 0. 0. 0. 0. 0. 0. 0. 0. 0.
      0. 0. 0. 0. 0. 0. 0. 0. 0. 0. 0. 0. 0. 0. 0. 0. 0. 0. 0. 0. 0. 0.
      0. 0. 0. 0. 0. 0. 0. 0. 0. 0. 0. 0. 0. 0. 0. 0. 0. 0. 0. 0.</_>
    <_>
      0. 0. 0. 0. 0. 0. 0. 0. 0. 0. 0. 0. 0. 0. 0. 0. 0. 0. 0. 0. 0. 0.
      0. 0. 0. 0. 0. 0. 0. 0. 0. 0. 0. 0. 0. 0. 0. 0. 0. 0. 0. 0. 0. 0.
      0. 0. 0. 0. 0. 0. 0. 0. 0. 0. 0. 2. 16. 60. 132. 197. 137. 188.
      181. 199. 278. 313. 374. 479. 541. 472. 460. 510. 446. 397. 414.
      483. 506. 668. 715. 615. 619. 663. 665. 667. 719. 690. 675. 703.
      743. 730. 749. 825. 768. 779. 805. 868. 996. 1016. 1105. 1221.
      1373. 1511. 1611. 1894. 2123. 2223. 2405. 2650. 2558. 2628. 2400.
      2278. 2090. 1914. 1654. 1490. 1487. 1521. 1671. 1781. 1876. 1798.
      1750. 1804. 1730. 1642. 1654. 1536. 1435. 1312. 1193. 1096. 994.
      921. 873. 764. 654. 576. 485. 371. 271. 185. 126. 74. 49. 37. 18.
      16. 10. 7. 15. 18. 9. 16. 17. 10. 8. 0. 0. 0. 0. 0. 0. 0. 0. 0. 0.
      0. 0. 0. 0. 0. 0. 0. 0. 0. 0. 0. 0. 0. 0. 0. 0. 0. 0. 0. 0. 0. 0.
      0. 0. 0. 0. 0. 0. 0. 0. 0. 0. 0. 0. 0. 0. 0. 0. 0. 0. 0. 0. 0. 0.
      0. 0. 0. 0. 0. 0. 0. 0. 0. 0. 0. 0. 0. 0. 0. 0. 0. 0. 0. 0. 0. 0.
      0. 0. 0. 0. 0. 0. 0. 0. 0. 0. 0. 0. 0. 0. 0. 0. 0. 0. 0. 0. 0. 0.
      0.</_>
    <_>
      0. 0. 0. 0. 0. 0. 0. 0. 0. 0. 0. 1. 0. 1. 2. 3. 4. 2. 2. 1. 0. 3.
      3. 5. 2. 7. 4. 4. 6. 6. 10. 8. 17. 27. 26. 26. 41. 53. 75. 83. 83.
      105. 112. 118. 103. 123. 123. 105. 136. 112. 98. 98. 70. 88. 81.
      85. 105. 110. 126. 119. 137. 125. 144. 114. 147. 152. 145. 178.
      176. 204. 241. 230. 269. 247. 271. 249. 251. 264. 271. 277. 253.
      232. 231. 207. 223. 203. 183. 183. 211. 195. 195. 205. 202. 203.
      202. 189. 218. 186. 154. 179. 145. 156. 140. 153. 173. 150. 178.
      174. 162. 177. 198. 176. 167. 189. 188. 176. 194. 177. 237. 204.
      264. 248. 252. 273. 277. 289. 302. 298. 293. 285. 286. 268. 260.
      273. 270. 228. 261. 231. 247. 244. 216. 215. 238. 208. 210. 199.
      191. 212. 179. 175. 178. 187. 181. 173. 190. 182. 203. 210. 211.
      231. 240. 248. 254. 273. 232. 280. 291. 266. 292. 276. 316. 321.
      312. 311. 346. 365. 374. 381. 411. 441. 407. 464. 498. 540. 561.
      570. 648. 728. 736. 824. 899. 938. 938. 1088. 1120. 1235. 1327.
      1314. 1413. 1455. 1519. 1475. 1556. 1573. 1538. 1441. 1477. 1526.
      1435. 1364. 1236. 1129. 1119. 977. 947. 852. 888. 821. 809. 851.
      847. 886. 913. 945. 1014. 920. 946. 962. 970. 936. 967. 1047. 980.
      1023. 898. 779. 650. 534. 421. 307. 196. 106. 70. 45. 27. 11. 12.
      3. 0. 0. 0. 0. 0. 0. 0. 0.</_>
    <_>
      352. 374. 487. 715. 59. 66. 64. 132. 295. 270. 390. 524. 645. 986.
      141. 120. 116. 127. 132. 146. 177. 181. 195. 190. 178. 158. 167.
      205. 151. 153. 148. 185. 198. 215. 254. 232. 246. 235. 226. 203.
      217. 213. 186. 174. 146. 155. 173. 155. 154. 139. 152. 193. 194.
      179. 186. 186. 182. 176. 182. 203. 203. 246. 226. 191. 231. 179.
      176. 186. 154. 168. 170. 170. 151. 135. 172. 143. 179. 175. 153.
      151. 161. 154. 139. 162. 169. 140. 149. 184. 155. 149. 160. 183.
      159. 163. 188. 175. 211. 223. 200. 230. 274. 246. 246. 270. 290.
      305. 293. 298. 288. 286. 287. 292. 283. 286. 290. 269. 272. 270.
      267. 239. 274. 308. 258. 269. 269. 276. 282. 284. 268. 237. 245.
      235. 258. 222. 235. 251. 223. 244. 255. 239. 237. 223. 215. 241.
      246. 269. 245. 251. 240. 284. 265. 286. 297. 303. 312. 324. 307.
      325. 323. 345. 341. 332. 342. 352. 389. 387. 393. 427. 442. 438.
      481. 544. 578. 614. 656. 636. 678. 761. 783. 730. 782. 825. 860.
      954. 853. 909. 1013. 977. 956. 913. 983. 950. 891. 911. 906. 929.
      813. 807. 803. 809. 721. 725. 689. 686. 634. 682. 672. 670. 678.
      697. 646. 699. 659. 739. 723. 761. 726. 804. 888. 961. 939. 1008.
      970. 946. 977. 912. 807. 719. 612. 521. 380. 347. 248. 164. 124.
      98. 67. 46. 30. 17. 11. 11. 5. 4. 8. 1. 2. 1. 1. 0. 0. 0. 0. 0. 0.
      0.</_>
    <_>
      0. 0. 0. 0. 0. 0. 0. 0. 0. 0. 0. 0. 0. 0. 0. 0. 0. 0. 0. 0. 0. 0.
      0. 0. 0. 0. 0. 0. 0. 0. 0. 0. 0. 0. 0. 0. 0. 0. 0. 0. 0. 0. 0. 0.
      0. 0. 0. 5. 90. 147. 200. 28. 6. 8. 11. 5. 10. 9. 10. 9. 12. 17.
      18. 18. 22. 26. 42. 55. 74. 114. 133. 192. 250. 276. 273. 293.
      263. 258. 299. 236. 235. 252. 249. 320. 377. 414. 453. 418. 401.
      423. 492. 463. 422. 472. 474. 497. 503. 637. 592. 468. 495. 504.
      545. 496. 424. 396. 332. 335. 413. 528. 594. 632. 697. 709. 704.
      616. 642. 634. 686. 797. 759. 708. 669. 636. 651. 680. 690. 635.
      737. 815. 1035. 1110. 1127. 1040. 1008. 1085. 1108. 1125. 1209.
      1336. 1528. 1718. 2047. 2130. 2425. 2621. 2589. 2423. 2126. 2004.
      1884. 1896. 1887. 1866. 1751. 1831. 1780. 1788. 1655. 1569. 1483.
      1296. 1223. 1176. 993. 791. 625. 416. 256. 134. 98. 46. 16. 11. 5.
      1. 0. 0. 0. 0. 0. 0. 0. 0. 0. 0. 0. 0. 0. 0. 0. 0. 0. 0. 0. 0. 0.
      0. 0. 0. 0. 0. 0. 0. 0. 0. 0. 0. 0. 0. 0. 0. 0. 0. 0. 0. 0. 0. 0.
      0. 0. 0. 0. 0. 0. 0. 0. 0. 0. 0. 0. 0. 0. 0. 0. 0. 0. 0. 0. 0. 0.
      0. 0. 0. 0. 0. 0. 0. 0. 0. 0. 0. 0. 0. 0. 0.</_>
    <_>
      0. 0. 0. 0. 0. 0. 0. 0. 0. 0. 0. 0. 0. 0. 0. 0. 0. 0. 0. 0. 0. 0.
      0. 0. 0. 0. 0. 0. 0. 0. 0. 0. 0. 0. 0. 0. 0. 0. 0. 0. 0. 0. 0. 0.
      0. 0. 0. 0. 0. 21. 90. 125. 44. 8. 9. 8. 10. 6. 6. 9. 9. 5. 11.
      13. 12. 17. 15. 23. 25. 38. 43. 45. 71. 114. 153. 290. 265. 243.
      292. 317. 284. 341. 414. 394. 441. 415. 381. 442. 469. 542. 468.
      475. 442. 458. 480. 501. 511. 472. 394. 405. 404. 466. 552. 537.
      471. 453. 433. 508. 457. 441. 484. 491. 483. 523. 618. 724. 850.
      925. 1026. 1021. 1011. 1059. 1125. 1005. 913. 845. 948. 1145.
      1273. 1213. 1181. 1244. 1233. 1366. 1451. 1459. 1559. 1690. 1835.
      2225. 2535. 2731. 2802. 2686. 2518. 2332. 2259. 2058. 2001. 2085.
      2075. 2110. 2258. 2051. 2100. 1838. 1428. 1098. 769. 439. 242.
      132. 76. 31. 19. 7. 1. 0. 2. 0. 0. 0. 1. 0. 0. 0. 0. 0. 0. 1. 0.
      0. 1. 1. 0. 1. 0. 0. 0. 0. 0. 0. 0. 0. 0. 0. 0. 0. 0. 0. 0. 0. 0.
      0. 0. 0. 0. 0. 0. 0. 0. 0. 0. 0. 0. 0. 0. 0. 0. 0. 0. 0. 0. 0. 0.
      0. 0. 0. 0. 0. 0. 0. 0. 0. 0. 0. 0. 0. 0. 0. 0. 0. 0. 0. 0. 0. 0.
      0. 0. 0. 0. 0. 0. 0. 0. 0.</_>
    <_>
      0. 0. 0. 0. 0. 0. 0. 0. 0. 0. 3. 9. 38. 62. 117. 126. 128. 130.
      116. 103. 95. 102. 116. 107. 95. 105. 118. 90. 82. 94. 129. 117.
      104. 108. 105. 104. 113. 118. 106. 143. 192. 207. 190. 198. 170.
      189. 195. 227. 185. 186. 194. 228. 269. 275. 344. 389. 411. 388.
      397. 345. 355. 332. 322. 330. 284. 322. 294. 353. 386. 385. 380.
      365. 363. 395. 385. 349. 320. 282. 283. 268. 255. 282. 238. 271.
      270. 260. 305. 272. 272. 299. 300. 300. 242. 261. 252. 225. 208.
      218. 258. 240. 226. 224. 225. 212. 212. 189. 211. 234. 226. 225.
      252. 253. 276. 276. 303. 278. 280. 288. 256. 278. 315. 284. 309.
      314. 364. 351. 372. 353. 314. 370. 395. 397. 366. 438. 436. 445.
      461. 506. 515. 552. 589. 566. 604. 601. 652. 693. 676. 705. 736.
      784. 721. 698. 729. 628. 664. 669. 614. 668. 651. 668. 702. 668.
      712. 725. 741. 753. 750. 767. 729. 733. 760. 741. 761. 738. 735.
      729. 709. 712. 692. 577. 611. 569. 585. 572. 543. 534. 538. 578.
      585. 557. 584. 548. 618. 652. 651. 660. 674. 653. 718. 827. 850.
      858. 912. 919. 1018. 1041. 995. 1029. 1085. 980. 871. 836. 729.
      681. 602. 549. 451. 379. 302. 213. 204. 161. 143. 119. 109. 90.
      66. 63. 44. 48. 26. 21. 24. 17. 15. 10. 4. 4. 1. 1. 0. 0. 0. 0. 0.
      0. 0. 0. 0. 0. 0. 0. 0. 0. 0. 0.</_>
    <_>
      0. 0. 0. 0. 0. 0. 0. 0. 0. 0. 0. 0. 0. 0. 0. 0. 0. 0. 0. 0. 0. 0.
      2. 1. 15. 28. 32. 38. 48. 58. 77. 80. 97. 111. 113. 122. 130. 111.
      119. 106. 108. 111. 117. 104. 124. 123. 117. 118. 118. 116. 123.
      103. 138. 119. 159. 198. 251. 284. 343. 326. 318. 312. 275. 276.
      280. 321. 343. 363. 325. 303. 317. 269. 309. 305. 275. 349. 288.
      285. 272. 238. 212. 221. 233. 185. 185. 170. 174. 180. 180. 181.
      182. 202. 218. 225. 219. 237. 196. 245. 222. 291. 248. 271. 244.
      306. 280. 277. 302. 321. 333. 357. 369. 343. 380. 448. 409. 434.
      454. 460. 455. 472. 523. 513. 590. 590. 653. 748. 741. 767. 787.
      883. 824. 876. 867. 929. 958. 926. 1063. 1057. 1135. 1264. 1298.
      1292. 1252. 1262. 1160. 1134. 1129. 1113. 1042. 1011. 852. 917.
      838. 802. 741. 725. 765. 750. 784. 770. 813. 811. 839. 803. 837.
      888. 904. 893. 964. 1015. 1008. 976. 1040. 1013. 987. 1016. 1047.
      1101. 1171. 1215. 1227. 1249. 1246. 1212. 1126. 1057. 947. 824.
      734. 588. 472. 362. 258. 208. 122. 78. 71. 40. 35. 16. 13. 4. 6.
      2. 0. 0. 0. 0. 0. 0. 0. 0. 0. 0. 0. 0. 0. 0. 0. 0. 0. 0. 0. 0. 0.
      0. 0. 0. 0. 0. 0. 0. 0. 0. 0. 0. 0. 0. 0. 0. 0. 0. 0. 0. 0. 0. 0.
      0. 0. 0. 0. 0. 0. 0. 0. 0.</_>
    <_>
      0. 0. 0. 0. 0. 0. 0. 0. 0. 0. 0. 0. 0. 0. 0. 0. 0. 0. 0. 0. 0. 0.
      0. 1. 1. 7. 7. 14. 17. 25. 45. 40. 41. 45. 55. 56. 61. 79. 72. 89.
      90. 87. 109. 108. 83. 96. 101. 122. 117. 101. 91. 97. 107. 111.
      134. 160. 163. 166. 181. 205. 178. 209. 200. 238. 277. 277. 303.
      292. 326. 295. 324. 343. 356. 337. 310. 286. 302. 318. 313. 313.
      293. 279. 258. 257. 287. 265. 269. 255. 266. 276. 309. 314. 335.
      348. 372. 327. 329. 268. 291. 284. 277. 291. 253. 285. 284. 281.
      319. 291. 309. 355. 390. 435. 439. 495. 498. 477. 475. 488. 456.
      482. 433. 407. 443. 444. 455. 527. 571. 618. 613. 757. 853. 837.
      889. 934. 964. 972. 1061. 1127. 1227. 1244. 1375. 1311. 1329.
      1284. 1283. 1290. 1253. 1236. 1195. 1192. 1160. 1123. 1027. 975.
      951. 896. 931. 864. 946. 1011. 1028. 1087. 1098. 1092. 1116. 1134.
      1101. 1124. 1177. 1175. 1247. 1186. 1162. 1167. 1209. 1135. 1154.
      1243. 1171. 1184. 1114. 1067. 886. 777. 659. 484. 337. 266. 142.
      90. 55. 43. 28. 25. 18. 12. 10. 10. 6. 7. 4. 1. 8. 1. 3. 1. 1. 1.
      2. 1. 0. 0. 0. 0. 1. 0. 0. 0. 0. 0. 0. 0. 0. 0. 0. 0. 0. 0. 0. 0.
      0. 0. 0. 0. 0. 0. 0. 0. 0. 0. 0. 0. 0. 0. 0. 0. 0. 0. 0. 0. 0. 0.
      0. 0. 0. 0.</_>
    <_>
      0. 0. 0. 0. 0. 0. 0. 0. 0. 0. 0. 0. 0. 0. 0. 0. 0. 0. 0. 0. 0. 0.
      0. 0. 0. 0. 0. 0. 0. 0. 0. 0. 0. 0. 0. 0. 0. 0. 0. 0. 0. 0. 0. 0.
      0. 0. 0. 0. 0. 0. 0. 2. 10. 23. 37. 40. 80. 135. 192. 195. 209.
      206. 216. 252. 259. 240. 266. 230. 259. 190. 161. 166. 162. 202.
      171. 145. 163. 169. 201. 250. 321. 369. 372. 334. 349. 348. 389.
      375. 397. 379. 450. 434. 481. 478. 474. 455. 462. 474. 449. 382.
      339. 327. 371. 353. 324. 360. 342. 375. 349. 417. 422. 476. 502.
      506. 576. 678. 877. 1087. 1101. 1189. 1078. 968. 851. 668. 755.
      779. 916. 980. 1107. 1269. 1327. 1378. 1487. 1560. 1598. 1701.
      1692. 1712. 1671. 1590. 1575. 1623. 1467. 1408. 1398. 1312. 1301.
      1204. 1177. 1235. 1110. 1186. 1289. 1314. 1327. 1263. 1229. 1155.
      1082. 1003. 894. 869. 781. 748. 804. 851. 846. 878. 905. 941. 940.
      924. 812. 720. 666. 516. 409. 322. 260. 187. 130. 99. 70. 44. 24.
      21. 14. 6. 1. 0. 0. 0. 0. 0. 0. 0. 0. 0. 0. 0. 0. 0. 0. 0. 0. 0.
      0. 0. 0. 0. 0. 0. 0. 0. 0. 0. 0. 0. 0. 0. 0. 0. 0. 0. 0. 0. 0. 0.
      0. 0. 0. 0. 0. 0. 0. 0. 0. 0. 0. 0. 0. 0. 0. 0. 0. 0. 0. 0. 0. 0.
      0. 0. 0. 0. 0. 0.</_>
    <_>
      0. 0. 0. 0. 0. 0. 0. 0. 0. 0. 0. 2. 8. 9. 2. 3. 4. 6. 7. 1. 2. 2.
      1. 0. 2. 1. 7. 6. 1. 3. 2. 3. 5. 3. 8. 4. 5. 6. 7. 5. 8. 6. 7. 10.
      10. 10. 12. 21. 55. 68. 68. 58. 100. 248. 335. 265. 179. 205. 212.
      228. 240. 277. 292. 297. 353. 391. 357. 436. 493. 506. 543. 567.
      649. 637. 556. 545. 596. 697. 730. 751. 713. 701. 733. 660. 584.
      494. 376. 355. 339. 367. 357. 368. 412. 409. 418. 498. 492. 553.
      622. 761. 767. 812. 736. 756. 717. 712. 699. 701. 714. 737. 744.
      756. 787. 866. 1059. 1102. 971. 817. 815. 813. 917. 1116. 1270.
      1615. 1774. 1988. 2157. 2190. 2136. 2127. 1780. 1707. 1609. 1567.
      1531. 1638. 1637. 1639. 1514. 1467. 1520. 1484. 1550. 1584. 1486.
      1376. 1331. 1232. 1082. 979. 840. 654. 608. 501. 409. 332. 234.
      147. 106. 57. 44. 18. 14. 4. 4. 0. 0. 0. 0. 0. 0. 0. 0. 0. 0. 0.
      0. 0. 0. 0. 0. 0. 0. 0. 0. 0. 0. 0. 0. 0. 0. 0. 0. 0. 0. 0. 0. 0.
      0. 0. 0. 0. 0. 0. 0. 0. 0. 0. 0. 0. 0. 0. 0. 0. 0. 0. 0. 0. 0. 0.
      0. 0. 0. 0. 0. 0. 0. 0. 0. 0. 0. 0. 0. 0. 0. 0. 0. 0. 0. 0. 0. 0.
      0. 0. 0. 0. 0. 0. 0. 0. 0. 0. 0. 0. 0. 0.</_>
    <_>
      0. 0. 0. 0. 0. 0. 0. 0. 0. 0. 0. 0. 0. 0. 0. 0. 0. 0. 0. 0. 0. 0.
      0. 0. 0. 0. 0. 0. 0. 0. 0. 0. 0. 0. 0. 0. 0. 0. 0. 0. 0. 0. 0. 2.
      9. 20. 44. 56. 59. 91. 102. 140. 153. 185. 194. 155. 138. 124.
      141. 136. 157. 165. 179. 180. 222. 259. 269. 367. 402. 458. 550.
      535. 528. 481. 523. 497. 575. 560. 497. 511. 411. 451. 483. 403.
      380. 393. 503. 613. 604. 637. 571. 517. 519. 475. 479. 437. 479.
      411. 367. 308. 317. 352. 391. 392. 460. 484. 546. 616. 701. 758.
      784. 841. 890. 947. 972. 988. 1035. 1096. 1134. 1249. 1151. 1122.
      1175. 1255. 1407. 1581. 1823. 2008. 2120. 2152. 2010. 1949. 1860.
      1696. 1560. 1334. 1209. 1155. 1061. 1053. 1050. 1118. 1193. 1374.
      1475. 1527. 1749. 1932. 1946. 1882. 1833. 1541. 1336. 1088. 868.
      661. 554. 410. 311. 225. 186. 161. 91. 63. 45. 26. 10. 5. 2. 0. 0.
      0. 0. 0. 0. 0. 0. 0. 0. 0. 0. 0. 0. 0. 0. 0. 0. 0. 0. 0. 0. 0. 0.
      0. 0. 0. 0. 0. 0. 0. 0. 0. 0. 0. 0. 0. 0. 0. 0. 0. 0. 0. 0. 0. 0.
      0. 0. 0. 0. 0. 0. 0. 0. 0. 0. 0. 0. 0. 0. 0. 0. 0. 0. 0. 0. 0. 0.
      0. 0. 0. 0. 0. 0. 0. 0. 0. 0. 0. 0. 0. 0. 0. 0. 0. 0. 0.</_>
    <_>
      0. 0. 0. 0. 0. 0. 0. 0. 0. 0. 0. 0. 0. 0. 0. 0. 0. 0. 0. 0. 0. 0.
      0. 0. 0. 0. 0. 0. 0. 0. 0. 0. 0. 0. 0. 0. 0. 0. 0. 0. 0. 0. 0. 0.
      0. 0. 0. 0. 0. 0. 0. 0. 0. 0. 0. 0. 0. 0. 0. 0. 0. 0. 0. 0. 0. 0.
      0. 0. 0. 25. 68. 117. 196. 382. 403. 389. 376. 317. 321. 279. 276.
      326. 340. 376. 483. 518. 498. 499. 513. 584. 666. 656. 589. 623.
      585. 606. 685. 794. 816. 821. 829. 823. 885. 803. 830. 767. 807.
      798. 737. 769. 793. 766. 867. 1216. 1511. 1767. 2150. 2464. 2698.
      2707. 2765. 2581. 2182. 1900. 1551. 1341. 1165. 1051. 1021. 1041.
      1038. 1144. 1127. 1197. 1252. 1430. 1465. 1644. 1798. 1752. 1785.
      1701. 1592. 1565. 1722. 1742. 1753. 1625. 1463. 1345. 1092. 846.
      632. 388. 278. 152. 73. 45. 22. 13. 6. 2. 0. 0. 0. 0. 0. 0. 0. 0.
      0. 0. 0. 0. 0. 0. 0. 0. 0. 0. 0. 0. 0. 0. 0. 0. 0. 0. 0. 0. 0. 0.
      0. 0. 0. 0. 0. 0. 0. 0. 0. 0. 0. 0. 0. 0. 0. 0. 0. 0. 0. 0. 0. 0.
      0. 0. 0. 0. 0. 0. 0. 0. 0. 0. 0. 0. 0. 0. 0. 0. 0. 0. 0. 0. 0. 0.
      0. 0. 0. 0. 0. 0. 0. 0. 0. 0. 0. 0. 0. 0. 0. 0. 0. 0. 0. 0.</_>
    <_>
      0. 0. 0. 0. 0. 0. 0. 0. 0. 0. 0. 0. 0. 0. 0. 0. 0. 0. 0. 0. 0. 0.
      0. 0. 0. 0. 0. 0. 0. 0. 0. 0. 0. 0. 0. 0. 0. 0. 0. 0. 0. 0. 0. 0.
      0. 0. 0. 0. 0. 0. 0. 0. 0. 0. 0. 0. 0. 0. 0. 0. 0. 0. 0. 0. 0. 0.
      0. 0. 0. 0. 0. 0. 0. 0. 2. 32. 105. 170. 238. 201. 242. 295. 319.
      240. 214. 242. 378. 526. 595. 656. 660. 591. 609. 540. 651. 749.
      800. 859. 811. 815. 745. 836. 900. 927. 859. 851. 813. 737. 850.
      978. 1093. 1257. 1452. 1752. 2038. 2331. 2441. 2486. 2447. 2241.
      1995. 2016. 1869. 1781. 1712. 1522. 1460. 1376. 1325. 1283. 1169.
      1201. 1151. 1165. 1133. 1278. 1428. 1547. 1775. 1964. 2242. 2332.
      2437. 2305. 2025. 1765. 1485. 1258. 1015. 797. 626. 465. 304. 249.
      143. 111. 51. 31. 15. 10. 5. 4. 1. 1. 0. 0. 0. 0. 0. 0. 0. 0. 0.
      0. 0. 0. 0. 0. 0. 0. 0. 0. 0. 0. 0. 0. 0. 0. 0. 0. 0. 0. 0. 0. 0.
      0. 0. 0. 0. 0. 0. 0. 0. 0. 0. 0. 0. 0. 0. 0. 0. 0. 0. 0. 0. 0. 0.
      0. 0. 0. 0. 0. 0. 0. 0. 0. 0. 0. 0. 0. 0. 0. 0. 0. 0. 0. 0. 0. 0.
      0. 0. 0. 0. 0. 0. 0. 0. 0. 0. 0. 0. 0. 0. 0. 0. 0.</_>
    <_>
      0. 0. 0. 0. 0. 0. 0. 0. 0. 0. 0. 0. 0. 0. 0. 0. 0. 0. 0. 0. 0. 0.
      0. 0. 0. 0. 0. 0. 0. 0. 0. 0. 0. 0. 0. 0. 0. 0. 0. 0. 0. 0. 0. 15.
      50. 92. 135. 103. 112. 100. 127. 117. 114. 144. 140. 121. 111.
      134. 133. 126. 153. 138. 111. 104. 90. 100. 79. 83. 109. 104. 102.
      99. 97. 93. 102. 92. 115. 128. 178. 183. 218. 231. 239. 228. 215.
      239. 209. 231. 224. 215. 213. 191. 193. 181. 183. 189. 188. 226.
      212. 220. 191. 198. 193. 187. 173. 183. 201. 203. 221. 206. 217.
      237. 207. 227. 204. 220. 226. 244. 269. 251. 283. 271. 275. 260.
      275. 247. 303. 276. 328. 286. 314. 351. 364. 348. 340. 344. 319.
      345. 373. 372. 387. 384. 437. 391. 421. 390. 333. 366. 343. 368.
      350. 376. 381. 364. 328. 377. 408. 406. 343. 318. 361. 360. 333.
      340. 352. 410. 383. 372. 417. 392. 444. 370. 420. 400. 424. 428.
      463. 433. 520. 619. 663. 816. 838. 872. 936. 944. 971. 1011. 1077.
      987. 953. 982. 1077. 1153. 1136. 983. 955. 914. 892. 940. 931.
      867. 883. 924. 913. 851. 760. 781. 808. 852. 858. 889. 841. 786.
      760. 766. 802. 860. 919. 870. 788. 756. 766. 778. 829. 772. 774.
      851. 893. 845. 938. 1113. 1302. 1327. 1501. 1466. 1332. 1052. 482.
      162. 27. 2. 1. 0. 0. 0. 0. 0. 0. 0. 0. 0. 0. 0. 0. 0.</_>
    <_>
      55. 166. 191. 115. 60. 59. 47. 47. 58. 89. 95. 97. 96. 126. 117.
      125. 138. 163. 160. 180. 173. 133. 130. 149. 163. 168. 187. 192.
      202. 177. 223. 277. 248. 248. 237. 258. 301. 299. 317. 332. 303.
      272. 254. 247. 218. 244. 202. 244. 225. 224. 212. 249. 229. 206.
      187. 175. 174. 143. 126. 137. 149. 154. 167. 190. 181. 178. 152.
      151. 135. 126. 184. 156. 168. 171. 190. 228. 243. 263. 236. 275.
      258. 249. 242. 231. 225. 227. 191. 191. 182. 166. 193. 186. 176.
      171. 174. 172. 137. 153. 169. 173. 166. 165. 163. 177. 160. 181.
      150. 179. 175. 184. 179. 182. 145. 195. 158. 186. 187. 205. 219.
      233. 231. 225. 219. 212. 228. 226. 219. 229. 249. 283. 262. 285.
      275. 305. 328. 324. 345. 332. 363. 339. 379. 357. 381. 426. 416.
      490. 491. 600. 540. 574. 534. 560. 501. 485. 430. 418. 355. 386.
      422. 418. 428. 416. 447. 491. 442. 515. 498. 538. 520. 545. 552.
      605. 596. 640. 658. 659. 715. 715. 724. 759. 763. 844. 870. 870.
      976. 931. 926. 981. 1029. 1007. 1124. 1092. 1083. 1032. 1084.
      1102. 1124. 1127. 1087. 1075. 1053. 1043. 958. 924. 916. 797. 747.
      763. 747. 787. 810. 749. 774. 703. 738. 784. 781. 805. 780. 772.
      751. 724. 582. 565. 454. 399. 328. 265. 193. 147. 116. 75. 48. 27.
      22. 10. 8. 3. 0. 0. 0. 0. 0. 0. 0. 0. 0. 0. 0. 0. 0. 0. 0. 0. 0.
      0.</_>
    <_>
      0. 3. 5. 9. 5. 5. 13. 14. 22. 17. 30. 16. 15. 10. 7. 4. 2. 3. 1.
      6. 2. 1. 0. 6. 3. 5. 2. 2. 5. 7. 8. 17. 15. 18. 25. 28. 34. 26.
      32. 29. 23. 28. 28. 33. 30. 30. 30. 42. 52. 44. 56. 77. 54. 42.
      25. 42. 30. 32. 27. 27. 30. 34. 36. 35. 37. 43. 35. 41. 57. 43.
      47. 51. 59. 59. 67. 68. 94. 102. 90. 100. 71. 86. 97. 84. 81. 84.
      90. 87. 90. 95. 114. 116. 134. 132. 112. 124. 130. 140. 108. 103.
      102. 90. 84. 105. 111. 88. 128. 114. 137. 169. 155. 175. 180. 155.
      152. 148. 142. 165. 171. 180. 195. 233. 287. 264. 292. 264. 278.
      286. 260. 254. 226. 259. 271. 302. 386. 473. 523. 555. 622. 573.
      640. 606. 668. 641. 707. 739. 768. 840. 807. 812. 759. 777. 749.
      773. 825. 782. 841. 891. 897. 889. 883. 911. 915. 895. 888. 1074.
      1086. 1130. 1168. 1222. 1360. 1478. 1455. 1528. 1663. 1653. 1802.
      1833. 1752. 1808. 1672. 1709. 1626. 1581. 1523. 1494. 1433. 1448.
      1391. 1341. 1234. 1255. 1242. 1140. 1143. 1097. 1177. 1098. 1124.
      1061. 931. 863. 792. 690. 573. 497. 416. 306. 238. 235. 172. 114.
      107. 94. 89. 63. 69. 76. 78. 46. 58. 58. 36. 40. 25. 21. 12. 12.
      8. 7. 5. 1. 1. 0. 0. 0. 0. 0. 0. 0. 0. 0. 0. 0. 0. 0. 0. 0. 0. 0.
      0. 0. 0. 0. 0. 0.</_>
    <_>
      0. 0. 0. 0. 2. 10. 17. 35. 25. 16. 9. 2. 7. 3. 4. 3. 5. 2. 1. 2.
      3. 0. 4. 5. 3. 3. 1. 1. 1. 8. 2. 5. 2. 4. 3. 0. 1. 4. 2. 8. 3. 4.
      4. 8. 5. 5. 8. 8. 9. 10. 15. 15. 34. 35. 33. 39. 27. 37. 48. 43.
      45. 34. 37. 37. 32. 37. 46. 47. 46. 63. 58. 70. 61. 68. 74. 56.
      57. 63. 71. 76. 75. 95. 85. 94. 96. 120. 94. 112. 109. 138. 151.
      184. 240. 241. 267. 258. 240. 267. 276. 273. 241. 222. 214. 207.
      201. 199. 216. 200. 244. 262. 252. 212. 263. 254. 237. 252. 192.
      201. 171. 180. 190. 174. 166. 160. 133. 124. 133. 131. 142. 141.
      214. 253. 277. 321. 376. 420. 482. 483. 470. 452. 430. 437. 490.
      516. 550. 574. 676. 755. 755. 817. 908. 941. 863. 804. 707. 768.
      643. 639. 706. 762. 728. 799. 946. 899. 961. 1072. 1078. 1115.
      1171. 1269. 1322. 1404. 1547. 1621. 1681. 1589. 1677. 1722. 1827.
      1809. 1766. 1764. 1681. 1755. 1708. 1628. 1691. 1658. 1599. 1557.
      1585. 1496. 1421. 1253. 1210. 1071. 902. 898. 750. 813. 742. 780.
      726. 662. 597. 553. 426. 403. 332. 264. 189. 159. 114. 68. 59. 56.
      42. 33. 36. 27. 34. 34. 21. 28. 15. 20. 9. 7. 8. 8. 8. 2. 2. 3. 1.
      1. 0. 0. 0. 0. 0. 0. 0. 0. 0. 0. 0. 0. 0. 0. 0. 0. 0. 0. 0. 0.</_>
    <_>
      0. 0. 0. 0. 0. 0. 0. 0. 0. 0. 0. 0. 0. 0. 0. 0. 0. 0. 0. 0. 0. 0.
      0. 0. 0. 0. 0. 3. 9. 27. 36. 54. 85. 88. 116. 122. 120. 127. 135.
      145. 130. 156. 146. 144. 154. 125. 160. 171. 113. 152. 154. 150.
      162. 127. 142. 148. 119. 116. 108. 120. 117. 125. 115. 122. 126.
      119. 136. 119. 99. 120. 101. 109. 104. 107. 96. 116. 113. 123. 85.
      84. 92. 84. 74. 65. 78. 70. 69. 72. 66. 82. 77. 108. 138. 164.
      174. 204. 216. 238. 210. 213. 230. 232. 220. 246. 224. 279. 218.
      225. 233. 218. 222. 199. 224. 219. 219. 221. 211. 189. 211. 203.
      199. 217. 189. 224. 210. 240. 213. 230. 232. 260. 235. 268. 273.
      274. 278. 235. 254. 317. 316. 308. 301. 325. 345. 363. 384. 403.
      360. 385. 411. 372. 369. 405. 393. 375. 388. 387. 363. 384. 386.
      337. 411. 413. 397. 406. 447. 449. 504. 503. 530. 626. 572. 657.
      613. 736. 699. 709. 670. 711. 718. 648. 547. 630. 679. 724. 709.
      633. 619. 625. 632. 689. 638. 628. 560. 607. 549. 573. 614. 666.
      745. 848. 1048. 1184. 1335. 1301. 1350. 1320. 1354. 1226. 1140.
      1150. 991. 970. 974. 836. 990. 848. 784. 769. 760. 727. 783. 828.
      880. 921. 1024. 1071. 1101. 1037. 1238. 1206. 1110. 1164. 1123.
      1109. 1072. 1158. 874. 491. 281. 85. 9. 0. 0. 0. 0. 0. 0. 0. 0. 0.
      0. 0. 0. 0. 0. 0.</_>
    <_>
      0. 0. 0. 0. 0. 0. 0. 0. 0. 0. 0. 0. 0. 0. 0. 0. 0. 0. 0. 0. 0. 8.
      5. 17. 21. 21. 25. 27. 28. 29. 33. 46. 43. 45. 64. 63. 60. 79. 87.
      65. 73. 52. 53. 65. 54. 55. 48. 45. 44. 42. 70. 68. 67. 73. 91.
      102. 114. 106. 111. 134. 102. 91. 110. 133. 152. 146. 119. 132.
      152. 167. 185. 191. 190. 202. 211. 233. 190. 196. 161. 183. 173.
      197. 192. 203. 203. 202. 213. 217. 254. 232. 219. 217. 231. 197.
      178. 188. 179. 174. 176. 217. 168. 185. 190. 185. 199. 203. 214.
      257. 206. 190. 213. 243. 217. 219. 197. 202. 204. 201. 202. 215.
      225. 191. 197. 226. 208. 236. 233. 238. 233. 220. 207. 191. 222.
      173. 187. 191. 211. 210. 161. 193. 166. 202. 187. 219. 181. 199.
      218. 208. 227. 239. 242. 251. 277. 281. 282. 282. 262. 257. 301.
      288. 285. 281. 302. 269. 276. 263. 313. 295. 327. 325. 325. 329.
      330. 335. 328. 340. 332. 334. 356. 378. 397. 461. 446. 473. 512.
      543. 537. 553. 518. 547. 535. 538. 555. 554. 590. 551. 656. 613.
      724. 783. 854. 1039. 1159. 1245. 1275. 1374. 1474. 1462. 1458.
      1518. 1402. 1471. 1432. 1259. 1363. 1322. 1345. 1239. 1260. 1156.
      1109. 1027. 999. 947. 1021. 1066. 1139. 1270. 1296. 1416. 1483.
      1543. 1589. 1550. 1432. 1319. 1099. 765. 490. 280. 160. 89. 47.
      32. 16. 17. 17. 21. 20. 24. 24. 5. 0. 0. 0. 0.</_>
    <_>
      0. 0. 0. 0. 0. 0. 0. 0. 0. 0. 0. 0. 0. 0. 0. 0. 0. 0. 0. 0. 0. 0.
      0. 7. 4. 6. 15. 11. 13. 14. 29. 19. 18. 17. 25. 17. 27. 24. 26.
      24. 31. 32. 42. 38. 51. 46. 57. 58. 45. 60. 83. 89. 92. 108. 129.
      150. 174. 184. 171. 184. 184. 197. 187. 247. 218. 232. 205. 215.
      212. 196. 207. 236. 220. 196. 223. 168. 177. 197. 155. 139. 158.
      138. 141. 125. 139. 160. 147. 133. 148. 131. 191. 165. 172. 186.
      160. 170. 155. 146. 181. 159. 164. 174. 192. 191. 188. 179. 175.
      181. 152. 152. 182. 169. 171. 172. 174. 210. 175. 190. 176. 160.
      196. 176. 212. 194. 197. 210. 224. 224. 239. 241. 223. 205. 237.
      241. 217. 215. 211. 225. 220. 180. 210. 181. 201. 221. 221. 216.
      210. 208. 246. 235. 238. 245. 267. 272. 306. 263. 263. 338. 335.
      337. 368. 356. 360. 370. 366. 401. 396. 400. 369. 332. 363. 379.
      358. 388. 372. 332. 372. 405. 431. 454. 486. 469. 475. 457. 463.
      431. 406. 436. 402. 423. 463. 525. 605. 618. 703. 752. 877. 959.
      1007. 1098. 1161. 1273. 1262. 1340. 1328. 1295. 1358. 1357. 1319.
      1304. 1275. 1283. 1258. 1273. 1303. 1402. 1333. 1389. 1306. 1381.
      1360. 1407. 1323. 1358. 1396. 1362. 1337. 1365. 1387. 1332. 1420.
      1315. 1299. 1063. 828. 667. 483. 301. 202. 96. 62. 27. 26. 13. 17.
      18. 13. 20. 10. 4. 0. 0. 0. 0. 0. 0.</_>
    <_>
      0. 3. 19. 59. 67. 86. 95. 149. 243. 362. 349. 362. 192. 8. 10. 7.
      12. 10. 10. 11. 9. 14. 14. 10. 18. 18. 14. 34. 25. 37. 27. 24. 27.
      30. 21. 32. 24. 26. 42. 36. 41. 49. 45. 47. 49. 48. 48. 51. 50.
      45. 55. 73. 64. 56. 74. 74. 86. 83. 96. 95. 124. 124. 133. 164.
      182. 169. 213. 173. 191. 190. 190. 222. 221. 221. 230. 222. 235.
      253. 294. 253. 318. 302. 293. 319. 339. 330. 335. 347. 372. 346.
      286. 321. 296. 254. 250. 229. 239. 246. 258. 251. 243. 239. 223.
      216. 210. 219. 225. 211. 193. 205. 220. 230. 181. 204. 210. 267.
      221. 219. 201. 206. 183. 192. 201. 227. 195. 256. 237. 246. 289.
      253. 252. 275. 283. 242. 256. 249. 265. 289. 312. 345. 320. 333.
      378. 348. 385. 358. 308. 333. 359. 371. 365. 345. 367. 345. 425.
      443. 497. 507. 501. 591. 540. 566. 518. 539. 522. 454. 423. 394.
      422. 395. 444. 377. 409. 456. 505. 498. 550. 585. 627. 604. 721.
      727. 781. 724. 824. 803. 906. 923. 943. 953. 1063. 1037. 1161.
      1148. 1234. 1223. 1248. 1276. 1278. 1287. 1269. 1332. 1266. 1237.
      1174. 1188. 1154. 1075. 1059. 1012. 1029. 1014. 931. 917. 917.
      903. 840. 840. 774. 822. 805. 769. 724. 779. 758. 663. 611. 507.
      480. 362. 271. 196. 159. 124. 92. 70. 61. 53. 23. 17. 21. 12. 7.
      4. 6. 5. 8. 2. 2. 0. 0. 0. 0. 0. 0. 0.</_>
    <_>
      0. 0. 0. 0. 0. 0. 0. 0. 0. 0. 0. 0. 0. 0. 0. 0. 0. 0. 0. 0. 0. 0.
      0. 0. 0. 0. 0. 0. 0. 0. 0. 0. 0. 0. 0. 0. 0. 0. 0. 0. 0. 0. 0. 0.
      0. 0. 0. 0. 0. 0. 0. 0. 0. 0. 0. 0. 0. 0. 0. 0. 0. 0. 0. 0. 0. 0.
      0. 0. 0. 0. 0. 0. 0. 0. 0. 0. 0. 0. 0. 0. 0. 0. 0. 0. 0. 0. 0. 0.
      0. 0. 0. 0. 0. 1. 4. 5. 25. 30. 55. 84. 100. 122. 148. 172. 191.
      212. 275. 295. 364. 405. 406. 385. 396. 379. 344. 319. 378. 374.
      377. 423. 398. 452. 485. 512. 553. 514. 547. 546. 537. 483. 503.
      478. 460. 421. 407. 405. 318. 357. 328. 301. 333. 306. 331. 285.
      305. 351. 364. 365. 356. 407. 439. 468. 450. 494. 566. 608. 677.
      716. 793. 859. 929. 963. 1025. 1084. 1098. 1080. 1108. 1193. 1161.
      1213. 1129. 1251. 1269. 1364. 1301. 1365. 1405. 1371. 1455. 1316.
      1331. 1282. 1190. 1198. 1184. 1152. 1135. 1043. 1067. 1084. 1080.
      985. 1087. 1087. 1195. 1216. 1301. 1398. 1315. 1325. 1404. 1233.
      1216. 1214. 1161. 1068. 927. 913. 935. 872. 830. 765. 701. 663.
      567. 531. 470. 376. 260. 231. 134. 98. 83. 37. 46. 32. 22. 18. 11.
      12. 5. 11. 15. 11. 7. 13. 8. 3. 3. 7. 3. 1. 2. 0. 0. 0. 0. 0. 0.
      0. 0. 0. 0. 0. 0. 0.</_>
    <_>
      0. 0. 0. 0. 0. 0. 0. 0. 0. 0. 0. 0. 0. 0. 0. 0. 20. 141. 220. 320.
      427. 126. 54. 66. 52. 69. 91. 104. 117. 152. 158. 167. 152. 156.
      161. 225. 211. 252. 220. 232. 223. 203. 200. 185. 195. 179. 201.
      192. 186. 214. 216. 247. 223. 264. 261. 283. 310. 328. 341. 334.
      327. 275. 290. 237. 272. 251. 284. 253. 211. 233. 253. 270. 222.
      221. 206. 202. 217. 237. 238. 275. 264. 251. 253. 253. 265. 267.
      253. 219. 190. 213. 200. 215. 225. 241. 210. 230. 227. 202. 202.
      202. 183. 187. 232. 212. 236. 230. 215. 246. 251. 297. 301. 285.
      320. 287. 330. 345. 312. 282. 314. 305. 253. 277. 261. 238. 275.
      189. 251. 216. 241. 218. 210. 224. 239. 260. 266. 305. 340. 380.
      418. 501. 593. 671. 678. 733. 754. 746. 799. 767. 708. 674. 702.
      734. 750. 728. 801. 838. 824. 871. 905. 1012. 1057. 1052. 1157.
      1137. 1187. 1283. 1266. 1343. 1340. 1358. 1303. 1237. 1273. 1206.
      1217. 1164. 1197. 1207. 1120. 1068. 1092. 1105. 1137. 1141. 1094.
      1111. 1094. 1109. 1001. 975. 987. 994. 958. 899. 930. 737. 762.
      626. 569. 480. 412. 336. 295. 238. 194. 158. 131. 77. 57. 38. 17.
      13. 5. 3. 0. 0. 0. 0. 0. 0. 0. 0. 0. 0. 0. 0. 0. 0. 0. 0. 0. 0. 0.
      0. 0. 0. 0. 0. 0. 0. 0. 0. 0. 0. 0. 0. 0. 0. 0. 0. 0. 0. 0. 0. 0.
      0.</_>
    <_>
      0. 0. 0. 0. 0. 0. 0. 0. 0. 0. 0. 0. 0. 0. 0. 0. 0. 0. 0. 0. 0. 0.
      0. 0. 0. 0. 0. 0. 0. 0. 0. 0. 0. 0. 1. 4. 12. 31. 38. 50. 51. 78.
      87. 81. 108. 99. 82. 96. 71. 95. 79. 96. 108. 108. 111. 123. 110.
      103. 108. 120. 103. 104. 82. 105. 86. 98. 97. 92. 105. 117. 123.
      134. 106. 136. 127. 119. 114. 132. 123. 108. 130. 132. 120. 114.
      121. 136. 156. 125. 152. 186. 171. 182. 212. 222. 214. 214. 250.
      224. 202. 213. 238. 221. 221. 242. 226. 270. 289. 303. 287. 299.
      286. 272. 300. 260. 288. 295. 249. 277. 271. 293. 301. 279. 284.
      275. 267. 238. 237. 265. 245. 277. 253. 250. 262. 241. 226. 229.
      261. 208. 215. 231. 229. 221. 220. 212. 212. 255. 232. 277. 265.
      305. 279. 320. 349. 337. 313. 304. 300. 287. 259. 251. 221. 243.
      258. 243. 306. 263. 256. 243. 252. 269. 267. 272. 301. 307. 311.
      366. 324. 324. 334. 339. 364. 365. 377. 360. 330. 371. 362. 407.
      402. 408. 419. 409. 428. 449. 476. 480. 510. 531. 557. 627. 630.
      654. 606. 648. 708. 702. 721. 733. 778. 754. 791. 783. 769. 815.
      849. 939. 973. 1161. 1366. 1599. 1694. 1872. 2039. 1879. 1476.
      1155. 1100. 1146. 1077. 887. 789. 732. 859. 973. 1160. 1053. 847.
      705. 693. 793. 798. 992. 1378. 1798. 1960. 2136. 2046. 447. 12. 0.
      0. 0. 0. 0. 0. 0.</_>
    <_>
      0. 0. 0. 0. 0. 0. 0. 0. 0. 0. 0. 1. 4. 29. 33. 48. 63. 69. 77. 82.
      99. 105. 88. 94. 121. 129. 156. 147. 121. 124. 153. 129. 138. 125.
      160. 141. 167. 152. 119. 121. 119. 115. 117. 105. 108. 112. 112.
      96. 116. 132. 116. 146. 162. 174. 198. 225. 255. 227. 236. 218.
      239. 227. 210. 217. 252. 249. 230. 243. 221. 270. 279. 282. 255.
      285. 274. 311. 301. 353. 329. 316. 308. 313. 308. 310. 276. 282.
      315. 272. 281. 276. 277. 242. 233. 254. 246. 301. 303. 232. 269.
      269. 241. 293. 242. 248. 261. 250. 248. 232. 259. 224. 232. 215.
      210. 209. 201. 192. 195. 218. 186. 220. 208. 228. 243. 285. 279.
      321. 371. 347. 345. 349. 356. 345. 348. 325. 318. 287. 323. 339.
      306. 366. 360. 374. 360. 299. 308. 282. 321. 305. 289. 356. 344.
      377. 423. 361. 383. 324. 357. 371. 353. 400. 361. 381. 400. 441.
      416. 451. 437. 426. 418. 403. 384. 427. 434. 435. 466. 508. 522.
      532. 565. 564. 591. 561. 574. 563. 567. 592. 675. 708. 773. 719.
      769. 859. 966. 1061. 1080. 1256. 1236. 1198. 1209. 1082. 1017.
      844. 749. 648. 687. 710. 829. 846. 754. 658. 658. 703. 624. 597.
      517. 475. 391. 437. 449. 498. 508. 460. 402. 411. 403. 387. 372.
      392. 401. 484. 636. 748. 807. 896. 931. 912. 939. 1106. 1422.
      1373. 987. 405. 97. 13. 2. 0. 0. 0. 0. 0. 0. 0. 0. 0. 0. 0.</_>
    <_>
      0. 0. 0. 0. 0. 0. 0. 0. 0. 0. 0. 0. 0. 0. 0. 0. 0. 0. 5. 9. 11.
      27. 31. 37. 40. 65. 84. 97. 134. 114. 122. 154. 166. 159. 152.
      146. 140. 149. 160. 158. 139. 149. 163. 138. 152. 173. 148. 193.
      167. 188. 187. 197. 171. 202. 204. 208. 216. 247. 268. 254. 262.
      252. 249. 222. 238. 213. 205. 230. 269. 266. 266. 309. 271. 273.
      282. 299. 305. 301. 302. 275. 259. 253. 254. 217. 229. 260. 237.
      234. 264. 247. 248. 281. 257. 241. 224. 246. 244. 237. 229. 247.
      227. 245. 263. 237. 247. 269. 263. 313. 315. 315. 289. 333. 307.
      295. 278. 313. 332. 298. 337. 321. 287. 335. 332. 310. 286. 337.
      279. 300. 287. 301. 297. 339. 359. 332. 402. 403. 425. 471. 477.
      499. 554. 601. 713. 752. 902. 960. 993. 1042. 1063. 1011. 993.
      957. 928. 867. 912. 906. 1002. 969. 936. 913. 992. 942. 893. 878.
      906. 829. 872. 800. 768. 763. 745. 717. 755. 772. 715. 723. 732.
      737. 721. 759. 740. 754. 783. 825. 775. 806. 847. 860. 883. 859.
      979. 925. 890. 925. 1019. 1018. 993. 1089. 980. 1061. 968. 993.
      930. 786. 690. 707. 582. 493. 465. 412. 293. 253. 230. 180. 127.
      78. 65. 51. 29. 22. 16. 9. 7. 6. 8. 5. 6. 5. 4. 1. 0. 0. 0. 0. 0.
      0. 0. 0. 0. 0. 0. 0. 0. 0. 0. 0. 0. 0. 0. 0. 0. 0. 0. 0. 0. 0.</_>
    <_>
      248. 49. 36. 13. 4. 20. 13. 5. 4. 5. 7. 3. 4. 6. 1. 7. 7. 3. 5. 4.
      3. 7. 6. 10. 13. 16. 5. 6. 11. 7. 14. 8. 11. 12. 6. 12. 16. 9. 12.
      29. 31. 50. 43. 67. 73. 54. 55. 62. 68. 72. 80. 59. 63. 61. 80.
      77. 82. 75. 97. 79. 97. 110. 95. 117. 128. 123. 167. 176. 187.
      168. 164. 157. 164. 180. 178. 170. 197. 229. 286. 256. 261. 244.
      229. 226. 216. 208. 238. 278. 287. 279. 259. 297. 302. 338. 396.
      425. 430. 403. 420. 407. 376. 359. 358. 385. 320. 345. 318. 355.
      329. 408. 382. 395. 408. 448. 462. 514. 506. 501. 514. 513. 469.
      488. 520. 508. 464. 416. 444. 413. 473. 434. 461. 492. 504. 489.
      558. 670. 741. 773. 834. 746. 707. 708. 661. 611. 613. 584. 645.
      666. 766. 916. 978. 1063. 1159. 1238. 1286. 1290. 1211. 1312.
      1249. 1303. 1282. 1317. 1343. 1295. 1244. 1204. 1198. 1240. 1261.
      1227. 1173. 1194. 1231. 1141. 1169. 1247. 1236. 1256. 1265. 1343.
      1306. 1269. 1237. 1283. 1236. 1235. 1185. 1081. 979. 848. 694.
      534. 388. 315. 227. 167. 140. 111. 80. 91. 70. 69. 58. 60. 54. 45.
      41. 45. 28. 30. 26. 26. 19. 11. 4. 4. 1. 1. 1. 0. 0. 0. 0. 0. 0.
      0. 0. 0. 0. 0. 0. 0. 0. 0. 0. 0. 0. 0. 0. 0. 0. 0. 0. 0. 0. 0. 0.
      0. 0. 0. 0. 0. 0. 0. 0. 0.</_>
    <_>
      0. 1. 0. 0. 1. 0. 0. 0. 1. 0. 0. 0. 0. 1. 1. 0. 0. 0. 0. 0. 1. 0.
      1. 0. 0. 0. 0. 2. 0. 0. 1. 1. 0. 1. 0. 0. 2. 0. 2. 0. 0. 2. 0. 1.
      2. 1. 4. 4. 2. 7. 4. 23. 24. 30. 34. 49. 53. 55. 84. 83. 80. 94.
      83. 68. 70. 86. 93. 88. 90. 104. 133. 132. 153. 144. 161. 171.
      185. 196. 247. 250. 286. 257. 302. 239. 248. 271. 290. 345. 349.
      327. 351. 319. 306. 310. 294. 316. 351. 364. 420. 402. 448. 437.
      475. 468. 451. 388. 315. 323. 319. 324. 285. 332. 337. 330. 355.
      332. 325. 307. 276. 315. 308. 351. 343. 377. 410. 426. 454. 484.
      492. 527. 568. 572. 566. 601. 622. 629. 631. 731. 679. 770. 820.
      827. 924. 859. 845. 828. 810. 855. 832. 865. 920. 941. 934. 998.
      943. 963. 941. 962. 956. 1006. 1004. 1035. 1180. 1308. 1339. 1585.
      1588. 1660. 1647. 1657. 1724. 1629. 1720. 1559. 1569. 1426. 1366.
      1351. 1158. 1091. 1041. 975. 880. 865. 823. 804. 855. 754. 770.
      787. 736. 751. 744. 702. 654. 553. 515. 428. 401. 339. 305. 227.
      163. 128. 79. 48. 34. 31. 27. 29. 16. 14. 15. 13. 14. 10. 9. 9. 8.
      17. 4. 13. 7. 10. 13. 5. 6. 1. 2. 2. 0. 1. 3. 0. 0. 0. 0. 0. 0. 0.
      0. 0. 0. 0. 0. 0. 0. 0. 0. 0. 0. 0. 0. 0. 0. 0.</_>
    <_>
      0. 0. 0. 0. 2. 14. 21. 23. 31. 25. 20. 11. 10. 7. 6. 11. 8. 12.
      11. 15. 15. 9. 12. 16. 15. 17. 19. 11. 15. 10. 19. 25. 22. 28. 38.
      27. 24. 36. 46. 45. 55. 65. 46. 54. 47. 58. 51. 52. 61. 47. 36.
      42. 33. 44. 42. 57. 56. 48. 54. 43. 71. 89. 89. 97. 103. 117. 118.
      137. 116. 152. 145. 137. 167. 171. 172. 189. 185. 173. 182. 205.
      209. 162. 176. 181. 201. 220. 229. 260. 272. 274. 238. 224. 238.
      216. 239. 241. 259. 265. 259. 280. 259. 268. 240. 300. 290. 282.
      282. 255. 274. 287. 305. 277. 303. 299. 305. 292. 277. 266. 287.
      289. 303. 312. 304. 285. 290. 303. 289. 336. 345. 429. 405. 426.
      400. 354. 388. 388. 343. 398. 464. 493. 558. 567. 599. 560. 552.
      564. 489. 427. 463. 359. 435. 475. 481. 498. 562. 572. 681. 713.
      743. 820. 824. 936. 924. 995. 975. 1067. 1047. 1097. 1100. 1084.
      1137. 1079. 1029. 1020. 986. 1035. 943. 893. 919. 822. 848. 745.
      709. 670. 664. 608. 666. 554. 549. 533. 557. 600. 555. 629. 671.
      711. 747. 828. 870. 919. 941. 1062. 1109. 1177. 1231. 1279. 1397.
      1336. 1375. 1352. 1285. 1233. 1143. 1053. 986. 800. 735. 599. 496.
      452. 347. 287. 237. 184. 142. 89. 73. 54. 51. 40. 31. 27. 23. 15.
      20. 17. 10. 7. 7. 7. 6. 2. 1. 3. 0. 0. 0. 0. 0. 0. 0. 0. 0. 0. 0.
      0.</_>
    <_>
      0. 0. 0. 0. 0. 0. 0. 0. 0. 0. 0. 0. 0. 0. 0. 0. 0. 0. 0. 0. 0. 0.
      0. 0. 0. 0. 0. 0. 0. 0. 0. 0. 0. 0. 0. 0. 0. 0. 0. 0. 0. 0. 0. 0.
      0. 0. 0. 0. 0. 0. 0. 0. 0. 0. 0. 0. 0. 0. 0. 0. 0. 0. 0. 0. 0. 0.
      0. 0. 0. 0. 0. 0. 0. 0. 0. 0. 0. 0. 0. 0. 0. 0. 3. 19. 23. 52. 83.
      126. 91. 118. 132. 191. 314. 373. 468. 535. 550. 603. 745. 793.
      836. 794. 675. 620. 649. 537. 501. 424. 395. 560. 640. 767. 828.
      819. 784. 760. 646. 656. 689. 796. 988. 947. 865. 939. 1005. 892.
      815. 747. 779. 888. 957. 1057. 1203. 1334. 1443. 1464. 1628. 1597.
      1722. 1740. 1827. 1816. 1885. 1842. 1856. 1766. 1690. 1665. 1635.
      1688. 1664. 1847. 1831. 1881. 2062. 2097. 2203. 2335. 2248. 2120.
      2033. 1812. 1501. 1193. 919. 710. 503. 328. 259. 173. 120. 82. 54.
      26. 33. 26. 16. 19. 13. 8. 4. 2. 2. 1. 0. 0. 1. 0. 0. 0. 0. 0. 0.
      0. 0. 0. 0. 0. 0. 0. 0. 0. 0. 0. 0. 0. 0. 0. 0. 0. 0. 0. 0. 0. 0.
      0. 0. 0. 0. 0. 0. 0. 0. 0. 0. 0. 0. 0. 0. 0. 0. 0. 0. 0. 0. 0. 0.
      0. 0. 0. 0. 0. 0. 0. 0. 0. 0. 0. 0. 0. 0. 0. 0. 0. 0. 0.</_>
    <_>
      0. 0. 0. 0. 0. 0. 0. 0. 0. 0. 0. 0. 0. 0. 0. 0. 0. 0. 0. 0. 0. 0.
      0. 0. 0. 0. 0. 0. 0. 0. 0. 0. 0. 0. 0. 0. 0. 0. 0. 0. 0. 0. 0. 0.
      0. 0. 0. 0. 0. 0. 0. 0. 0. 0. 0. 0. 0. 0. 0. 0. 0. 0. 0. 0. 0. 0.
      0. 0. 0. 0. 0. 0. 0. 0. 0. 0. 0. 0. 2. 5. 27. 49. 54. 61. 80. 151.
      193. 230. 220. 257. 256. 318. 291. 246. 192. 181. 161. 176. 262.
      329. 438. 660. 689. 821. 786. 718. 603. 502. 498. 511. 593. 751.
      680. 566. 467. 513. 499. 578. 555. 563. 562. 531. 554. 577. 620.
      677. 740. 825. 924. 930. 880. 814. 807. 829. 822. 834. 846. 802.
      950. 1014. 1176. 1434. 1555. 1674. 1833. 1866. 1835. 1952. 2086.
      1886. 1877. 1816. 1737. 1604. 1452. 1447. 1326. 1285. 1306. 1319.
      1393. 1397. 1564. 1634. 1829. 1814. 1942. 1985. 1933. 1769. 1669.
      1400. 1176. 926. 759. 571. 469. 375. 262. 197. 154. 108. 84. 56.
      51. 58. 28. 16. 20. 10. 7. 6. 3. 0. 0. 0. 0. 0. 0. 0. 0. 0. 0. 0.
      0. 0. 0. 0. 0. 0. 0. 0. 0. 0. 0. 0. 0. 0. 0. 0. 0. 0. 0. 0. 0. 0.
      0. 0. 0. 0. 0. 0. 0. 0. 0. 0. 0. 0. 0. 0. 0. 0. 0. 0. 0. 0. 0. 0.
      0. 0. 0. 0. 0. 0. 0. 0.</_>
    <_>
      0. 0. 0. 0. 0. 0. 0. 0. 0. 0. 0. 0. 0. 0. 0. 0. 0. 0. 0. 0. 0. 0.
      0. 0. 0. 0. 0. 0. 0. 0. 0. 0. 0. 0. 0. 0. 0. 0. 0. 2. 4. 10. 31.
      29. 42. 61. 69. 69. 68. 77. 88. 95. 82. 83. 102. 85. 97. 103. 114.
      117. 115. 108. 113. 133. 107. 130. 117. 103. 137. 117. 113. 93.
      111. 120. 119. 108. 110. 129. 148. 167. 157. 134. 153. 168. 163.
      159. 181. 184. 162. 200. 177. 198. 155. 149. 187. 190. 201. 225.
      258. 241. 205. 182. 223. 200. 195. 229. 258. 221. 223. 221. 224.
      203. 217. 191. 238. 213. 195. 223. 215. 243. 250. 223. 268. 260.
      285. 278. 348. 302. 299. 274. 261. 265. 245. 232. 275. 264. 239.
      223. 224. 249. 235. 223. 232. 207. 226. 224. 218. 267. 258. 225.
      266. 259. 273. 278. 301. 348. 335. 348. 340. 359. 362. 424. 479.
      428. 394. 385. 431. 403. 381. 399. 371. 412. 407. 381. 422. 431.
      404. 425. 415. 389. 420. 443. 488. 526. 540. 495. 509. 541. 512.
      568. 609. 657. 792. 785. 822. 907. 968. 980. 979. 1039. 1077.
      1112. 1133. 1184. 1241. 1367. 1485. 1513. 1546. 1502. 1532. 1337.
      1225. 1141. 1139. 1050. 959. 845. 789. 839. 845. 808. 717. 719.
      655. 662. 645. 628. 704. 767. 846. 739. 718. 806. 940. 1090. 1209.
      1181. 1195. 1014. 855. 910. 1001. 974. 487. 74. 0. 0. 0. 0. 0. 0.
      0. 0. 0. 0.</_>
    <_>
      0. 0. 0. 0. 0. 0. 0. 0. 0. 0. 0. 0. 0. 0. 0. 0. 0. 0. 0. 0. 0. 0.
      0. 0. 0. 0. 0. 0. 0. 0. 0. 0. 0. 0. 0. 0. 0. 0. 0. 0. 0. 0. 0. 0.
      0. 0. 0. 0. 4. 8. 24. 32. 57. 71. 95. 131. 138. 144. 161. 158.
      146. 129. 137. 118. 110. 113. 109. 111. 136. 170. 175. 214. 221.
      225. 241. 243. 243. 282. 260. 278. 228. 213. 260. 229. 242. 270.
      226. 251. 259. 293. 305. 320. 311. 316. 287. 311. 246. 274. 290.
      244. 271. 262. 259. 293. 268. 270. 287. 307. 273. 292. 296. 300.
      300. 283. 311. 319. 322. 333. 294. 280. 300. 270. 272. 312. 313.
      307. 288. 281. 283. 279. 245. 235. 247. 212. 241. 227. 240. 275.
      242. 263. 287. 290. 297. 313. 311. 280. 245. 245. 264. 284. 296.
      284. 278. 295. 301. 280. 246. 254. 287. 275. 285. 274. 309. 281.
      284. 274. 302. 293. 312. 319. 362. 335. 391. 377. 391. 415. 388.
      401. 442. 412. 411. 390. 402. 384. 371. 397. 394. 411. 438. 472.
      466. 521. 602. 724. 900. 1100. 1338. 1290. 1148. 1186. 1062. 1024.
      995. 1019. 1104. 1058. 1017. 1080. 1156. 1006. 844. 753. 719. 755.
      720. 795. 739. 855. 847. 865. 905. 833. 799. 775. 732. 696. 649.
      727. 963. 1147. 982. 810. 746. 699. 663. 695. 746. 870. 986. 939.
      1212. 1464. 1335. 1165. 1109. 890. 360. 67. 9. 0. 0. 0. 0. 0. 0.
      0.</_>
    <_>
      0. 0. 0. 0. 0. 0. 0. 0. 0. 0. 0. 0. 0. 0. 0. 0. 0. 0. 0. 0. 0. 0.
      0. 2. 2. 2. 2. 3. 3. 6. 1. 5. 8. 4. 5. 5. 3. 3. 4. 6. 5. 9. 4. 18.
      119. 170. 126. 149. 131. 96. 98. 116. 131. 140. 159. 158. 142.
      179. 236. 266. 275. 276. 330. 372. 398. 483. 448. 381. 398. 475.
      447. 482. 433. 482. 494. 542. 666. 721. 741. 664. 589. 571. 610.
      565. 525. 520. 434. 412. 389. 417. 436. 501. 569. 644. 801. 813.
      904. 915. 914. 977. 936. 901. 818. 854. 835. 812. 752. 854. 845.
      867. 925. 1138. 1241. 1377. 1326. 1397. 1598. 1906. 2234. 2480.
      2727. 2615. 2447. 2196. 2063. 1952. 1841. 1845. 1950. 1945. 2039.
      1896. 1936. 1804. 1777. 1606. 1431. 1285. 1081. 967. 773. 688.
      528. 413. 309. 216. 149. 123. 70. 52. 27. 17. 3. 1. 1. 2. 0. 0. 0.
      0. 0. 0. 0. 0. 0. 0. 0. 0. 0. 0. 0. 0. 0. 0. 0. 0. 0. 0. 0. 0. 0.
      0. 0. 0. 0. 0. 0. 0. 0. 0. 0. 0. 0. 0. 0. 0. 0. 0. 0. 0. 0. 0. 0.
      0. 0. 0. 0. 0. 0. 0. 0. 0. 0. 0. 0. 0. 0. 0. 0. 0. 0. 0. 0. 0. 0.
      0. 0. 0. 0. 0. 0. 0. 0. 0. 0. 0. 0. 0. 0. 0. 0. 0. 0. 0. 0. 0. 0.
      0. 0. 0. 0. 0. 0. 0. 0. 0.</_>
    <_>
      0. 0. 25. 59. 133. 204. 359. 368. 406. 439. 301. 282. 463. 678.
      773. 748. 730. 640. 608. 606. 533. 456. 391. 368. 345. 321. 321.
      252. 239. 275. 265. 253. 232. 236. 228. 200. 219. 218. 228. 298.
      356. 361. 434. 418. 431. 450. 452. 330. 336. 309. 285. 270. 269.
      286. 277. 285. 281. 269. 284. 286. 263. 274. 319. 298. 277. 288.
      313. 303. 331. 344. 342. 331. 331. 338. 372. 370. 330. 304. 343.
      305. 334. 324. 265. 278. 274. 273. 266. 247. 246. 259. 249. 228.
      238. 210. 214. 244. 219. 203. 193. 200. 202. 208. 197. 164. 205.
      191. 170. 167. 188. 178. 196. 176. 171. 172. 187. 179. 218. 208.
      183. 206. 219. 217. 183. 188. 220. 193. 194. 192. 202. 170. 206.
      205. 202. 180. 223. 237. 211. 238. 191. 219. 224. 234. 206. 253.
      216. 205. 228. 252. 240. 282. 344. 275. 337. 330. 372. 386. 372.
      394. 366. 442. 438. 429. 448. 454. 469. 462. 462. 451. 488. 497.
      480. 459. 435. 462. 469. 423. 444. 390. 450. 421. 421. 452. 449.
